SNNS network definition file V1.4-3D
generated at Sat Oct  2 15:11:37 2021

network name : Jnet_net
source files : 
no. of units : 511
no. of connections : 41100
no. of unit types : 0
no. of site types : 0


learning function : Std_Backpropagation
update function   : Topological_Order


unit default section :

act      | bias     | st | subnet | layer | act func     | out func
---------|----------|----|--------|-------|--------------|-------------
 0.00000 |  0.00000 | h  |      0 |     1 | Act_Logistic | Out_Identity
---------|----------|----|--------|-------|--------------|-------------


unit definition section :

no. | typeName | unitName | act      | bias     | st | position | act func | out func | sites
----|----------|----------|----------|----------|----|----------|----------|----------|-------
  1 |          | unit     |  0.00000 |  0.00000 | i  |  1, 1, 0 |||
  2 |          | unit     |  0.00000 |  0.00000 | i  |  1, 2, 0 |||
  3 |          | unit     |  0.00000 |  0.00000 | i  |  1, 3, 0 |||
  4 |          | unit     |  0.00000 |  0.00000 | i  |  1, 4, 0 |||
  5 |          | unit     |  0.00000 |  0.00000 | i  |  1, 5, 0 |||
  6 |          | unit     |  0.00000 |  0.00000 | i  |  1, 6, 0 |||
  7 |          | unit     |  0.00000 |  0.00000 | i  |  1, 7, 0 |||
  8 |          | unit     |  0.00000 |  0.00000 | i  |  1, 8, 0 |||
  9 |          | unit     |  0.00000 |  0.00000 | i  |  1, 9, 0 |||
 10 |          | unit     |  0.00000 |  0.00000 | i  |  1,10, 0 |||
 11 |          | unit     |  0.00000 |  0.00000 | i  |  1,11, 0 |||
 12 |          | unit     |  0.00000 |  0.00000 | i  |  1,12, 0 |||
 13 |          | unit     |  0.00000 |  0.00000 | i  |  1,13, 0 |||
 14 |          | unit     |  0.00000 |  0.00000 | i  |  1,14, 0 |||
 15 |          | unit     |  0.00000 |  0.00000 | i  |  1,15, 0 |||
 16 |          | unit     |  0.00000 |  0.00000 | i  |  1,16, 0 |||
 17 |          | unit     |  0.00000 |  0.00000 | i  |  1,17, 0 |||
 18 |          | unit     |  0.00000 |  0.00000 | i  |  1,18, 0 |||
 19 |          | unit     |  0.00000 |  0.00000 | i  |  1,19, 0 |||
 20 |          | unit     |  0.00000 |  0.00000 | i  |  1,20, 0 |||
 21 |          | unit     |  0.00000 |  0.00000 | i  |  1,21, 0 |||
 22 |          | unit     |  0.00000 |  0.00000 | i  |  2, 1, 0 |||
 23 |          | unit     |  0.00000 |  0.00000 | i  |  2, 2, 0 |||
 24 |          | unit     |  0.00000 |  0.00000 | i  |  2, 3, 0 |||
 25 |          | unit     |  0.00000 |  0.00000 | i  |  2, 4, 0 |||
 26 |          | unit     |  0.00000 |  0.00000 | i  |  2, 5, 0 |||
 27 |          | unit     |  0.00000 |  0.00000 | i  |  2, 6, 0 |||
 28 |          | unit     |  0.00000 |  0.00000 | i  |  2, 7, 0 |||
 29 |          | unit     |  0.00000 |  0.00000 | i  |  2, 8, 0 |||
 30 |          | unit     |  0.00000 |  0.00000 | i  |  2, 9, 0 |||
 31 |          | unit     |  0.00000 |  0.00000 | i  |  2,10, 0 |||
 32 |          | unit     |  0.00000 |  0.00000 | i  |  2,11, 0 |||
 33 |          | unit     |  0.00000 |  0.00000 | i  |  2,12, 0 |||
 34 |          | unit     |  0.00000 |  0.00000 | i  |  2,13, 0 |||
 35 |          | unit     |  0.00000 |  0.00000 | i  |  2,14, 0 |||
 36 |          | unit     |  0.00000 |  0.00000 | i  |  2,15, 0 |||
 37 |          | unit     |  0.00000 |  0.00000 | i  |  2,16, 0 |||
 38 |          | unit     |  0.00000 |  0.00000 | i  |  2,17, 0 |||
 39 |          | unit     |  0.00000 |  0.00000 | i  |  2,18, 0 |||
 40 |          | unit     |  0.00000 |  0.00000 | i  |  2,19, 0 |||
 41 |          | unit     |  0.00000 |  0.00000 | i  |  2,20, 0 |||
 42 |          | unit     |  0.00000 |  0.00000 | i  |  2,21, 0 |||
 43 |          | unit     |  0.00000 |  0.00000 | i  |  3, 1, 0 |||
 44 |          | unit     |  0.00000 |  0.00000 | i  |  3, 2, 0 |||
 45 |          | unit     |  0.00000 |  0.00000 | i  |  3, 3, 0 |||
 46 |          | unit     |  0.00000 |  0.00000 | i  |  3, 4, 0 |||
 47 |          | unit     |  0.00000 |  0.00000 | i  |  3, 5, 0 |||
 48 |          | unit     |  0.00000 |  0.00000 | i  |  3, 6, 0 |||
 49 |          | unit     |  0.00000 |  0.00000 | i  |  3, 7, 0 |||
 50 |          | unit     |  0.00000 |  0.00000 | i  |  3, 8, 0 |||
 51 |          | unit     |  0.00000 |  0.00000 | i  |  3, 9, 0 |||
 52 |          | unit     |  0.00000 |  0.00000 | i  |  3,10, 0 |||
 53 |          | unit     |  0.00000 |  0.00000 | i  |  3,11, 0 |||
 54 |          | unit     |  0.00000 |  0.00000 | i  |  3,12, 0 |||
 55 |          | unit     |  0.00000 |  0.00000 | i  |  3,13, 0 |||
 56 |          | unit     |  0.00000 |  0.00000 | i  |  3,14, 0 |||
 57 |          | unit     |  0.00000 |  0.00000 | i  |  3,15, 0 |||
 58 |          | unit     |  0.00000 |  0.00000 | i  |  3,16, 0 |||
 59 |          | unit     |  0.00000 |  0.00000 | i  |  3,17, 0 |||
 60 |          | unit     |  0.00000 |  0.00000 | i  |  3,18, 0 |||
 61 |          | unit     |  0.00000 |  0.00000 | i  |  3,19, 0 |||
 62 |          | unit     |  0.00000 |  0.00000 | i  |  3,20, 0 |||
 63 |          | unit     |  0.00000 |  0.00000 | i  |  3,21, 0 |||
 64 |          | unit     |  0.00000 |  0.00000 | i  |  4, 1, 0 |||
 65 |          | unit     |  0.00000 |  0.00000 | i  |  4, 2, 0 |||
 66 |          | unit     |  0.00000 |  0.00000 | i  |  4, 3, 0 |||
 67 |          | unit     |  0.00000 |  0.00000 | i  |  4, 4, 0 |||
 68 |          | unit     |  0.00000 |  0.00000 | i  |  4, 5, 0 |||
 69 |          | unit     |  0.00000 |  0.00000 | i  |  4, 6, 0 |||
 70 |          | unit     |  0.00000 |  0.00000 | i  |  4, 7, 0 |||
 71 |          | unit     |  0.00000 |  0.00000 | i  |  4, 8, 0 |||
 72 |          | unit     |  0.00000 |  0.00000 | i  |  4, 9, 0 |||
 73 |          | unit     |  0.00000 |  0.00000 | i  |  4,10, 0 |||
 74 |          | unit     |  0.00000 |  0.00000 | i  |  4,11, 0 |||
 75 |          | unit     |  0.00000 |  0.00000 | i  |  4,12, 0 |||
 76 |          | unit     |  0.00000 |  0.00000 | i  |  4,13, 0 |||
 77 |          | unit     |  0.00000 |  0.00000 | i  |  4,14, 0 |||
 78 |          | unit     |  0.00000 |  0.00000 | i  |  4,15, 0 |||
 79 |          | unit     |  0.00000 |  0.00000 | i  |  4,16, 0 |||
 80 |          | unit     |  0.00000 |  0.00000 | i  |  4,17, 0 |||
 81 |          | unit     |  0.00000 |  0.00000 | i  |  4,18, 0 |||
 82 |          | unit     |  0.00000 |  0.00000 | i  |  4,19, 0 |||
 83 |          | unit     |  0.00000 |  0.00000 | i  |  4,20, 0 |||
 84 |          | unit     |  0.00000 |  0.00000 | i  |  4,21, 0 |||
 85 |          | unit     |  0.00000 |  0.00000 | i  |  5, 1, 0 |||
 86 |          | unit     |  0.00000 |  0.00000 | i  |  5, 2, 0 |||
 87 |          | unit     |  0.00000 |  0.00000 | i  |  5, 3, 0 |||
 88 |          | unit     |  0.00000 |  0.00000 | i  |  5, 4, 0 |||
 89 |          | unit     |  0.00000 |  0.00000 | i  |  5, 5, 0 |||
 90 |          | unit     |  0.00000 |  0.00000 | i  |  5, 6, 0 |||
 91 |          | unit     |  0.00000 |  0.00000 | i  |  5, 7, 0 |||
 92 |          | unit     |  0.00000 |  0.00000 | i  |  5, 8, 0 |||
 93 |          | unit     |  0.00000 |  0.00000 | i  |  5, 9, 0 |||
 94 |          | unit     |  0.00000 |  0.00000 | i  |  5,10, 0 |||
 95 |          | unit     |  0.00000 |  0.00000 | i  |  5,11, 0 |||
 96 |          | unit     |  0.00000 |  0.00000 | i  |  5,12, 0 |||
 97 |          | unit     |  0.00000 |  0.00000 | i  |  5,13, 0 |||
 98 |          | unit     |  0.00000 |  0.00000 | i  |  5,14, 0 |||
 99 |          | unit     |  0.00000 |  0.00000 | i  |  5,15, 0 |||
100 |          | unit     |  0.00000 |  0.00000 | i  |  5,16, 0 |||
101 |          | unit     |  0.00000 |  0.00000 | i  |  5,17, 0 |||
102 |          | unit     |  0.00000 |  0.00000 | i  |  5,18, 0 |||
103 |          | unit     |  0.00000 |  0.00000 | i  |  5,19, 0 |||
104 |          | unit     |  0.00000 |  0.00000 | i  |  5,20, 0 |||
105 |          | unit     |  0.00000 |  0.00000 | i  |  5,21, 0 |||
106 |          | unit     |  0.00000 |  0.00000 | i  |  6, 1, 0 |||
107 |          | unit     |  0.00000 |  0.00000 | i  |  6, 2, 0 |||
108 |          | unit     |  0.00000 |  0.00000 | i  |  6, 3, 0 |||
109 |          | unit     |  0.00000 |  0.00000 | i  |  6, 4, 0 |||
110 |          | unit     |  0.00000 |  0.00000 | i  |  6, 5, 0 |||
111 |          | unit     |  0.00000 |  0.00000 | i  |  6, 6, 0 |||
112 |          | unit     |  0.00000 |  0.00000 | i  |  6, 7, 0 |||
113 |          | unit     |  0.00000 |  0.00000 | i  |  6, 8, 0 |||
114 |          | unit     |  0.00000 |  0.00000 | i  |  6, 9, 0 |||
115 |          | unit     |  0.00000 |  0.00000 | i  |  6,10, 0 |||
116 |          | unit     |  0.00000 |  0.00000 | i  |  6,11, 0 |||
117 |          | unit     |  0.00000 |  0.00000 | i  |  6,12, 0 |||
118 |          | unit     |  0.00000 |  0.00000 | i  |  6,13, 0 |||
119 |          | unit     |  0.00000 |  0.00000 | i  |  6,14, 0 |||
120 |          | unit     |  0.00000 |  0.00000 | i  |  6,15, 0 |||
121 |          | unit     |  0.00000 |  0.00000 | i  |  6,16, 0 |||
122 |          | unit     |  0.00000 |  0.00000 | i  |  6,17, 0 |||
123 |          | unit     |  0.00000 |  0.00000 | i  |  6,18, 0 |||
124 |          | unit     |  0.00000 |  0.00000 | i  |  6,19, 0 |||
125 |          | unit     |  0.00000 |  0.00000 | i  |  6,20, 0 |||
126 |          | unit     |  0.00000 |  0.00000 | i  |  6,21, 0 |||
127 |          | unit     |  0.00000 |  0.00000 | i  |  7, 1, 0 |||
128 |          | unit     |  0.00000 |  0.00000 | i  |  7, 2, 0 |||
129 |          | unit     |  0.00000 |  0.00000 | i  |  7, 3, 0 |||
130 |          | unit     |  0.00000 |  0.00000 | i  |  7, 4, 0 |||
131 |          | unit     |  0.00000 |  0.00000 | i  |  7, 5, 0 |||
132 |          | unit     |  0.00000 |  0.00000 | i  |  7, 6, 0 |||
133 |          | unit     |  0.00000 |  0.00000 | i  |  7, 7, 0 |||
134 |          | unit     |  0.00000 |  0.00000 | i  |  7, 8, 0 |||
135 |          | unit     |  0.00000 |  0.00000 | i  |  7, 9, 0 |||
136 |          | unit     |  0.00000 |  0.00000 | i  |  7,10, 0 |||
137 |          | unit     |  0.00000 |  0.00000 | i  |  7,11, 0 |||
138 |          | unit     |  0.00000 |  0.00000 | i  |  7,12, 0 |||
139 |          | unit     |  0.00000 |  0.00000 | i  |  7,13, 0 |||
140 |          | unit     |  0.00000 |  0.00000 | i  |  7,14, 0 |||
141 |          | unit     |  0.00000 |  0.00000 | i  |  7,15, 0 |||
142 |          | unit     |  0.00000 |  0.00000 | i  |  7,16, 0 |||
143 |          | unit     |  0.00000 |  0.00000 | i  |  7,17, 0 |||
144 |          | unit     |  0.00000 |  0.00000 | i  |  7,18, 0 |||
145 |          | unit     |  0.00000 |  0.00000 | i  |  7,19, 0 |||
146 |          | unit     |  0.00000 |  0.00000 | i  |  7,20, 0 |||
147 |          | unit     |  0.00000 |  0.00000 | i  |  7,21, 0 |||
148 |          | unit     |  0.00000 |  0.00000 | i  |  8, 1, 0 |||
149 |          | unit     |  0.00000 |  0.00000 | i  |  8, 2, 0 |||
150 |          | unit     |  0.00000 |  0.00000 | i  |  8, 3, 0 |||
151 |          | unit     |  0.00000 |  0.00000 | i  |  8, 4, 0 |||
152 |          | unit     |  0.00000 |  0.00000 | i  |  8, 5, 0 |||
153 |          | unit     |  0.00000 |  0.00000 | i  |  8, 6, 0 |||
154 |          | unit     |  0.00000 |  0.00000 | i  |  8, 7, 0 |||
155 |          | unit     |  0.00000 |  0.00000 | i  |  8, 8, 0 |||
156 |          | unit     |  0.00000 |  0.00000 | i  |  8, 9, 0 |||
157 |          | unit     |  0.00000 |  0.00000 | i  |  8,10, 0 |||
158 |          | unit     |  0.00000 |  0.00000 | i  |  8,11, 0 |||
159 |          | unit     |  0.00000 |  0.00000 | i  |  8,12, 0 |||
160 |          | unit     |  0.00000 |  0.00000 | i  |  8,13, 0 |||
161 |          | unit     |  0.00000 |  0.00000 | i  |  8,14, 0 |||
162 |          | unit     |  0.00000 |  0.00000 | i  |  8,15, 0 |||
163 |          | unit     |  0.00000 |  0.00000 | i  |  8,16, 0 |||
164 |          | unit     |  0.00000 |  0.00000 | i  |  8,17, 0 |||
165 |          | unit     |  0.00000 |  0.00000 | i  |  8,18, 0 |||
166 |          | unit     |  0.00000 |  0.00000 | i  |  8,19, 0 |||
167 |          | unit     |  0.00000 |  0.00000 | i  |  8,20, 0 |||
168 |          | unit     |  0.00000 |  0.00000 | i  |  8,21, 0 |||
169 |          | unit     |  0.00000 |  0.00000 | i  |  9, 1, 0 |||
170 |          | unit     |  0.00000 |  0.00000 | i  |  9, 2, 0 |||
171 |          | unit     |  0.00000 |  0.00000 | i  |  9, 3, 0 |||
172 |          | unit     |  0.00000 |  0.00000 | i  |  9, 4, 0 |||
173 |          | unit     |  0.00000 |  0.00000 | i  |  9, 5, 0 |||
174 |          | unit     |  0.00000 |  0.00000 | i  |  9, 6, 0 |||
175 |          | unit     |  0.00000 |  0.00000 | i  |  9, 7, 0 |||
176 |          | unit     |  0.00000 |  0.00000 | i  |  9, 8, 0 |||
177 |          | unit     |  0.00000 |  0.00000 | i  |  9, 9, 0 |||
178 |          | unit     |  0.00000 |  0.00000 | i  |  9,10, 0 |||
179 |          | unit     |  0.00000 |  0.00000 | i  |  9,11, 0 |||
180 |          | unit     |  0.00000 |  0.00000 | i  |  9,12, 0 |||
181 |          | unit     |  0.00000 |  0.00000 | i  |  9,13, 0 |||
182 |          | unit     |  0.00000 |  0.00000 | i  |  9,14, 0 |||
183 |          | unit     |  0.00000 |  0.00000 | i  |  9,15, 0 |||
184 |          | unit     |  0.00000 |  0.00000 | i  |  9,16, 0 |||
185 |          | unit     |  0.00000 |  0.00000 | i  |  9,17, 0 |||
186 |          | unit     |  0.00000 |  0.00000 | i  |  9,18, 0 |||
187 |          | unit     |  0.00000 |  0.00000 | i  |  9,19, 0 |||
188 |          | unit     |  0.00000 |  0.00000 | i  |  9,20, 0 |||
189 |          | unit     |  0.00000 |  0.00000 | i  |  9,21, 0 |||
190 |          | unit     |  0.00000 |  0.00000 | i  | 10, 1, 0 |||
191 |          | unit     |  0.00000 |  0.00000 | i  | 10, 2, 0 |||
192 |          | unit     |  0.00000 |  0.00000 | i  | 10, 3, 0 |||
193 |          | unit     |  0.00000 |  0.00000 | i  | 10, 4, 0 |||
194 |          | unit     |  0.00000 |  0.00000 | i  | 10, 5, 0 |||
195 |          | unit     |  0.00000 |  0.00000 | i  | 10, 6, 0 |||
196 |          | unit     |  0.00000 |  0.00000 | i  | 10, 7, 0 |||
197 |          | unit     |  0.00000 |  0.00000 | i  | 10, 8, 0 |||
198 |          | unit     |  0.00000 |  0.00000 | i  | 10, 9, 0 |||
199 |          | unit     |  0.00000 |  0.00000 | i  | 10,10, 0 |||
200 |          | unit     |  0.00000 |  0.00000 | i  | 10,11, 0 |||
201 |          | unit     |  0.00000 |  0.00000 | i  | 10,12, 0 |||
202 |          | unit     |  0.00000 |  0.00000 | i  | 10,13, 0 |||
203 |          | unit     |  0.00000 |  0.00000 | i  | 10,14, 0 |||
204 |          | unit     |  0.00000 |  0.00000 | i  | 10,15, 0 |||
205 |          | unit     |  0.00000 |  0.00000 | i  | 10,16, 0 |||
206 |          | unit     |  0.00000 |  0.00000 | i  | 10,17, 0 |||
207 |          | unit     |  0.00000 |  0.00000 | i  | 10,18, 0 |||
208 |          | unit     |  0.00000 |  0.00000 | i  | 10,19, 0 |||
209 |          | unit     |  0.00000 |  0.00000 | i  | 10,20, 0 |||
210 |          | unit     |  0.00000 |  0.00000 | i  | 10,21, 0 |||
211 |          | unit     |  0.00000 |  0.00000 | i  | 11, 1, 0 |||
212 |          | unit     |  0.00000 |  0.00000 | i  | 11, 2, 0 |||
213 |          | unit     |  0.00000 |  0.00000 | i  | 11, 3, 0 |||
214 |          | unit     |  0.00000 |  0.00000 | i  | 11, 4, 0 |||
215 |          | unit     |  0.00000 |  0.00000 | i  | 11, 5, 0 |||
216 |          | unit     |  0.00000 |  0.00000 | i  | 11, 6, 0 |||
217 |          | unit     |  0.00000 |  0.00000 | i  | 11, 7, 0 |||
218 |          | unit     |  0.00000 |  0.00000 | i  | 11, 8, 0 |||
219 |          | unit     |  0.00000 |  0.00000 | i  | 11, 9, 0 |||
220 |          | unit     |  0.00000 |  0.00000 | i  | 11,10, 0 |||
221 |          | unit     |  0.00000 |  0.00000 | i  | 11,11, 0 |||
222 |          | unit     |  0.00000 |  0.00000 | i  | 11,12, 0 |||
223 |          | unit     |  0.00000 |  0.00000 | i  | 11,13, 0 |||
224 |          | unit     |  0.00000 |  0.00000 | i  | 11,14, 0 |||
225 |          | unit     |  0.00000 |  0.00000 | i  | 11,15, 0 |||
226 |          | unit     |  0.00000 |  0.00000 | i  | 11,16, 0 |||
227 |          | unit     |  0.00000 |  0.00000 | i  | 11,17, 0 |||
228 |          | unit     |  0.00000 |  0.00000 | i  | 11,18, 0 |||
229 |          | unit     |  0.00000 |  0.00000 | i  | 11,19, 0 |||
230 |          | unit     |  0.00000 |  0.00000 | i  | 11,20, 0 |||
231 |          | unit     |  0.00000 |  0.00000 | i  | 11,21, 0 |||
232 |          | unit     |  0.00000 |  0.00000 | i  | 12, 1, 0 |||
233 |          | unit     |  0.00000 |  0.00000 | i  | 12, 2, 0 |||
234 |          | unit     |  0.00000 |  0.00000 | i  | 12, 3, 0 |||
235 |          | unit     |  0.00000 |  0.00000 | i  | 12, 4, 0 |||
236 |          | unit     |  0.00000 |  0.00000 | i  | 12, 5, 0 |||
237 |          | unit     |  0.00000 |  0.00000 | i  | 12, 6, 0 |||
238 |          | unit     |  0.00000 |  0.00000 | i  | 12, 7, 0 |||
239 |          | unit     |  0.00000 |  0.00000 | i  | 12, 8, 0 |||
240 |          | unit     |  0.00000 |  0.00000 | i  | 12, 9, 0 |||
241 |          | unit     |  0.00000 |  0.00000 | i  | 12,10, 0 |||
242 |          | unit     |  0.00000 |  0.00000 | i  | 12,11, 0 |||
243 |          | unit     |  0.00000 |  0.00000 | i  | 12,12, 0 |||
244 |          | unit     |  0.00000 |  0.00000 | i  | 12,13, 0 |||
245 |          | unit     |  0.00000 |  0.00000 | i  | 12,14, 0 |||
246 |          | unit     |  0.00000 |  0.00000 | i  | 12,15, 0 |||
247 |          | unit     |  0.00000 |  0.00000 | i  | 12,16, 0 |||
248 |          | unit     |  0.00000 |  0.00000 | i  | 12,17, 0 |||
249 |          | unit     |  0.00000 |  0.00000 | i  | 12,18, 0 |||
250 |          | unit     |  0.00000 |  0.00000 | i  | 12,19, 0 |||
251 |          | unit     |  0.00000 |  0.00000 | i  | 12,20, 0 |||
252 |          | unit     |  0.00000 |  0.00000 | i  | 12,21, 0 |||
253 |          | unit     |  0.00000 |  0.00000 | i  | 13, 1, 0 |||
254 |          | unit     |  0.00000 |  0.00000 | i  | 13, 2, 0 |||
255 |          | unit     |  0.00000 |  0.00000 | i  | 13, 3, 0 |||
256 |          | unit     |  0.00000 |  0.00000 | i  | 13, 4, 0 |||
257 |          | unit     |  0.00000 |  0.00000 | i  | 13, 5, 0 |||
258 |          | unit     |  0.00000 |  0.00000 | i  | 13, 6, 0 |||
259 |          | unit     |  0.00000 |  0.00000 | i  | 13, 7, 0 |||
260 |          | unit     |  0.00000 |  0.00000 | i  | 13, 8, 0 |||
261 |          | unit     |  0.00000 |  0.00000 | i  | 13, 9, 0 |||
262 |          | unit     |  0.00000 |  0.00000 | i  | 13,10, 0 |||
263 |          | unit     |  0.00000 |  0.00000 | i  | 13,11, 0 |||
264 |          | unit     |  0.00000 |  0.00000 | i  | 13,12, 0 |||
265 |          | unit     |  0.00000 |  0.00000 | i  | 13,13, 0 |||
266 |          | unit     |  0.00000 |  0.00000 | i  | 13,14, 0 |||
267 |          | unit     |  0.00000 |  0.00000 | i  | 13,15, 0 |||
268 |          | unit     |  0.00000 |  0.00000 | i  | 13,16, 0 |||
269 |          | unit     |  0.00000 |  0.00000 | i  | 13,17, 0 |||
270 |          | unit     |  0.00000 |  0.00000 | i  | 13,18, 0 |||
271 |          | unit     |  0.00000 |  0.00000 | i  | 13,19, 0 |||
272 |          | unit     |  0.00000 |  0.00000 | i  | 13,20, 0 |||
273 |          | unit     |  0.00000 |  0.00000 | i  | 13,21, 0 |||
274 |          | unit     |  0.00000 |  0.00000 | i  | 14, 1, 0 |||
275 |          | unit     |  0.00000 |  0.00000 | i  | 14, 2, 0 |||
276 |          | unit     |  0.00000 |  0.00000 | i  | 14, 3, 0 |||
277 |          | unit     |  0.00000 |  0.00000 | i  | 14, 4, 0 |||
278 |          | unit     |  0.00000 |  0.00000 | i  | 14, 5, 0 |||
279 |          | unit     |  0.00000 |  0.00000 | i  | 14, 6, 0 |||
280 |          | unit     |  0.00000 |  0.00000 | i  | 14, 7, 0 |||
281 |          | unit     |  0.00000 |  0.00000 | i  | 14, 8, 0 |||
282 |          | unit     |  0.00000 |  0.00000 | i  | 14, 9, 0 |||
283 |          | unit     |  0.00000 |  0.00000 | i  | 14,10, 0 |||
284 |          | unit     |  0.00000 |  0.00000 | i  | 14,11, 0 |||
285 |          | unit     |  0.00000 |  0.00000 | i  | 14,12, 0 |||
286 |          | unit     |  0.00000 |  0.00000 | i  | 14,13, 0 |||
287 |          | unit     |  0.00000 |  0.00000 | i  | 14,14, 0 |||
288 |          | unit     |  0.00000 |  0.00000 | i  | 14,15, 0 |||
289 |          | unit     |  0.00000 |  0.00000 | i  | 14,16, 0 |||
290 |          | unit     |  0.00000 |  0.00000 | i  | 14,17, 0 |||
291 |          | unit     |  0.00000 |  0.00000 | i  | 14,18, 0 |||
292 |          | unit     |  0.00000 |  0.00000 | i  | 14,19, 0 |||
293 |          | unit     |  0.00000 |  0.00000 | i  | 14,20, 0 |||
294 |          | unit     |  0.00000 |  0.00000 | i  | 14,21, 0 |||
295 |          | unit     |  0.00000 |  0.00000 | i  | 15, 1, 0 |||
296 |          | unit     |  0.00000 |  0.00000 | i  | 15, 2, 0 |||
297 |          | unit     |  0.00000 |  0.00000 | i  | 15, 3, 0 |||
298 |          | unit     |  0.00000 |  0.00000 | i  | 15, 4, 0 |||
299 |          | unit     |  0.00000 |  0.00000 | i  | 15, 5, 0 |||
300 |          | unit     |  0.00000 |  0.00000 | i  | 15, 6, 0 |||
301 |          | unit     |  0.00000 |  0.00000 | i  | 15, 7, 0 |||
302 |          | unit     |  0.00000 |  0.00000 | i  | 15, 8, 0 |||
303 |          | unit     |  0.00000 |  0.00000 | i  | 15, 9, 0 |||
304 |          | unit     |  0.00000 |  0.00000 | i  | 15,10, 0 |||
305 |          | unit     |  0.00000 |  0.00000 | i  | 15,11, 0 |||
306 |          | unit     |  0.00000 |  0.00000 | i  | 15,12, 0 |||
307 |          | unit     |  0.00000 |  0.00000 | i  | 15,13, 0 |||
308 |          | unit     |  0.00000 |  0.00000 | i  | 15,14, 0 |||
309 |          | unit     |  0.00000 |  0.00000 | i  | 15,15, 0 |||
310 |          | unit     |  0.00000 |  0.00000 | i  | 15,16, 0 |||
311 |          | unit     |  0.00000 |  0.00000 | i  | 15,17, 0 |||
312 |          | unit     |  0.00000 |  0.00000 | i  | 15,18, 0 |||
313 |          | unit     |  0.00000 |  0.00000 | i  | 15,19, 0 |||
314 |          | unit     |  0.00000 |  0.00000 | i  | 15,20, 0 |||
315 |          | unit     |  0.00000 |  0.00000 | i  | 15,21, 0 |||
316 |          | unit     |  0.00000 |  0.00000 | i  | 16, 1, 0 |||
317 |          | unit     |  0.00000 |  0.00000 | i  | 16, 2, 0 |||
318 |          | unit     |  0.00000 |  0.00000 | i  | 16, 3, 0 |||
319 |          | unit     |  0.00000 |  0.00000 | i  | 16, 4, 0 |||
320 |          | unit     |  0.00000 |  0.00000 | i  | 16, 5, 0 |||
321 |          | unit     |  0.00000 |  0.00000 | i  | 16, 6, 0 |||
322 |          | unit     |  0.00000 |  0.00000 | i  | 16, 7, 0 |||
323 |          | unit     |  0.00000 |  0.00000 | i  | 16, 8, 0 |||
324 |          | unit     |  0.00000 |  0.00000 | i  | 16, 9, 0 |||
325 |          | unit     |  0.00000 |  0.00000 | i  | 16,10, 0 |||
326 |          | unit     |  0.00000 |  0.00000 | i  | 16,11, 0 |||
327 |          | unit     |  0.00000 |  0.00000 | i  | 16,12, 0 |||
328 |          | unit     |  0.00000 |  0.00000 | i  | 16,13, 0 |||
329 |          | unit     |  0.00000 |  0.00000 | i  | 16,14, 0 |||
330 |          | unit     |  0.00000 |  0.00000 | i  | 16,15, 0 |||
331 |          | unit     |  0.00000 |  0.00000 | i  | 16,16, 0 |||
332 |          | unit     |  0.00000 |  0.00000 | i  | 16,17, 0 |||
333 |          | unit     |  0.00000 |  0.00000 | i  | 16,18, 0 |||
334 |          | unit     |  0.00000 |  0.00000 | i  | 16,19, 0 |||
335 |          | unit     |  0.00000 |  0.00000 | i  | 16,20, 0 |||
336 |          | unit     |  0.00000 |  0.00000 | i  | 16,21, 0 |||
337 |          | unit     |  0.00000 |  0.00000 | i  | 17, 1, 0 |||
338 |          | unit     |  0.00000 |  0.00000 | i  | 17, 2, 0 |||
339 |          | unit     |  0.00000 |  0.00000 | i  | 17, 3, 0 |||
340 |          | unit     |  0.00000 |  0.00000 | i  | 17, 4, 0 |||
341 |          | unit     |  0.00000 |  0.00000 | i  | 17, 5, 0 |||
342 |          | unit     |  0.00000 |  0.00000 | i  | 17, 6, 0 |||
343 |          | unit     |  0.00000 |  0.00000 | i  | 17, 7, 0 |||
344 |          | unit     |  0.00000 |  0.00000 | i  | 17, 8, 0 |||
345 |          | unit     |  0.00000 |  0.00000 | i  | 17, 9, 0 |||
346 |          | unit     |  0.00000 |  0.00000 | i  | 17,10, 0 |||
347 |          | unit     |  0.00000 |  0.00000 | i  | 17,11, 0 |||
348 |          | unit     |  0.00000 |  0.00000 | i  | 17,12, 0 |||
349 |          | unit     |  0.00000 |  0.00000 | i  | 17,13, 0 |||
350 |          | unit     |  0.00000 |  0.00000 | i  | 17,14, 0 |||
351 |          | unit     |  0.00000 |  0.00000 | i  | 17,15, 0 |||
352 |          | unit     |  0.00000 |  0.00000 | i  | 17,16, 0 |||
353 |          | unit     |  0.00000 |  0.00000 | i  | 17,17, 0 |||
354 |          | unit     |  0.00000 |  0.00000 | i  | 17,18, 0 |||
355 |          | unit     |  0.00000 |  0.00000 | i  | 17,19, 0 |||
356 |          | unit     |  0.00000 |  0.00000 | i  | 17,20, 0 |||
357 |          | unit     |  0.00000 |  0.00000 | i  | 17,21, 0 |||
358 |          | unit     |  0.00000 |  0.00000 | i  | 18, 1, 0 |||
359 |          | unit     |  0.00000 |  0.00000 | i  | 18, 2, 0 |||
360 |          | unit     |  0.00000 |  0.00000 | i  | 18, 3, 0 |||
361 |          | unit     |  0.00000 |  0.00000 | i  | 18, 4, 0 |||
362 |          | unit     |  0.00000 |  0.00000 | i  | 18, 5, 0 |||
363 |          | unit     |  0.00000 |  0.00000 | i  | 18, 6, 0 |||
364 |          | unit     |  0.00000 |  0.00000 | i  | 18, 7, 0 |||
365 |          | unit     |  0.00000 |  0.00000 | i  | 18, 8, 0 |||
366 |          | unit     |  0.00000 |  0.00000 | i  | 18, 9, 0 |||
367 |          | unit     |  0.00000 |  0.00000 | i  | 18,10, 0 |||
368 |          | unit     |  0.00000 |  0.00000 | i  | 18,11, 0 |||
369 |          | unit     |  0.00000 |  0.00000 | i  | 18,12, 0 |||
370 |          | unit     |  0.00000 |  0.00000 | i  | 18,13, 0 |||
371 |          | unit     |  0.00000 |  0.00000 | i  | 18,14, 0 |||
372 |          | unit     |  0.00000 |  0.00000 | i  | 18,15, 0 |||
373 |          | unit     |  0.00000 |  0.00000 | i  | 18,16, 0 |||
374 |          | unit     |  0.00000 |  0.00000 | i  | 18,17, 0 |||
375 |          | unit     |  0.00000 |  0.00000 | i  | 18,18, 0 |||
376 |          | unit     |  0.00000 |  0.00000 | i  | 18,19, 0 |||
377 |          | unit     |  0.00000 |  0.00000 | i  | 18,20, 0 |||
378 |          | unit     |  0.00000 |  0.00000 | i  | 18,21, 0 |||
379 |          | unit     |  0.00000 |  0.00000 | i  | 19, 1, 0 |||
380 |          | unit     |  0.00000 |  0.00000 | i  | 19, 2, 0 |||
381 |          | unit     |  0.00000 |  0.00000 | i  | 19, 3, 0 |||
382 |          | unit     |  0.00000 |  0.00000 | i  | 19, 4, 0 |||
383 |          | unit     |  0.00000 |  0.00000 | i  | 19, 5, 0 |||
384 |          | unit     |  0.00000 |  0.00000 | i  | 19, 6, 0 |||
385 |          | unit     |  0.00000 |  0.00000 | i  | 19, 7, 0 |||
386 |          | unit     |  0.00000 |  0.00000 | i  | 19, 8, 0 |||
387 |          | unit     |  0.00000 |  0.00000 | i  | 19, 9, 0 |||
388 |          | unit     |  0.00000 |  0.00000 | i  | 19,10, 0 |||
389 |          | unit     |  0.00000 |  0.00000 | i  | 19,11, 0 |||
390 |          | unit     |  0.00000 |  0.00000 | i  | 19,12, 0 |||
391 |          | unit     |  0.00000 |  0.00000 | i  | 19,13, 0 |||
392 |          | unit     |  0.00000 |  0.00000 | i  | 19,14, 0 |||
393 |          | unit     |  0.00000 |  0.00000 | i  | 19,15, 0 |||
394 |          | unit     |  0.00000 |  0.00000 | i  | 19,16, 0 |||
395 |          | unit     |  0.00000 |  0.00000 | i  | 19,17, 0 |||
396 |          | unit     |  0.00000 |  0.00000 | i  | 19,18, 0 |||
397 |          | unit     |  0.00000 |  0.00000 | i  | 19,19, 0 |||
398 |          | unit     |  0.00000 |  0.00000 | i  | 19,20, 0 |||
399 |          | unit     |  0.00000 |  0.00000 | i  | 19,21, 0 |||
400 |          | unit     |  0.00000 |  0.00000 | i  | 20, 1, 0 |||
401 |          | unit     |  0.00000 |  0.00000 | i  | 20, 2, 0 |||
402 |          | unit     |  0.00000 |  0.00000 | i  | 20, 3, 0 |||
403 |          | unit     |  0.00000 |  0.00000 | i  | 20, 4, 0 |||
404 |          | unit     |  0.00000 |  0.00000 | i  | 20, 5, 0 |||
405 |          | unit     |  0.00000 |  0.00000 | i  | 20, 6, 0 |||
406 |          | unit     |  0.00000 |  0.00000 | i  | 20, 7, 0 |||
407 |          | unit     |  0.00000 |  0.00000 | i  | 20, 8, 0 |||
408 |          | unit     |  0.00000 |  0.00000 | i  | 20, 9, 0 |||
409 |          | unit     |  0.00000 |  0.00000 | h  | 23, 1, 0 |||
410 |          | unit     |  0.00000 |  0.00000 | h  | 23, 2, 0 |||
411 |          | unit     |  0.00000 |  0.00000 | h  | 23, 3, 0 |||
412 |          | unit     |  0.00000 |  0.00000 | h  | 23, 4, 0 |||
413 |          | unit     |  0.00000 |  0.00000 | h  | 23, 5, 0 |||
414 |          | unit     |  0.00000 |  0.00000 | h  | 23, 6, 0 |||
415 |          | unit     |  0.00000 |  0.00000 | h  | 23, 7, 0 |||
416 |          | unit     |  0.00000 |  0.00000 | h  | 23, 8, 0 |||
417 |          | unit     |  0.00000 |  0.00000 | h  | 23, 9, 0 |||
418 |          | unit     |  0.00000 |  0.00000 | h  | 23,10, 0 |||
419 |          | unit     |  0.00000 |  0.00000 | h  | 23,11, 0 |||
420 |          | unit     |  0.00000 |  0.00000 | h  | 23,12, 0 |||
421 |          | unit     |  0.00000 |  0.00000 | h  | 23,13, 0 |||
422 |          | unit     |  0.00000 |  0.00000 | h  | 23,14, 0 |||
423 |          | unit     |  0.00000 |  0.00000 | h  | 23,15, 0 |||
424 |          | unit     |  0.00000 |  0.00000 | h  | 23,16, 0 |||
425 |          | unit     |  0.00000 |  0.00000 | h  | 23,17, 0 |||
426 |          | unit     |  0.00000 |  0.00000 | h  | 23,18, 0 |||
427 |          | unit     |  0.00000 |  0.00000 | h  | 23,19, 0 |||
428 |          | unit     |  0.00000 |  0.00000 | h  | 23,20, 0 |||
429 |          | unit     |  0.00000 |  0.00000 | h  | 23,21, 0 |||
430 |          | unit     |  0.00000 |  0.00000 | h  | 23,22, 0 |||
431 |          | unit     |  0.00000 |  0.00000 | h  | 23,23, 0 |||
432 |          | unit     |  0.00000 |  0.00000 | h  | 23,24, 0 |||
433 |          | unit     |  0.00000 |  0.00000 | h  | 23,25, 0 |||
434 |          | unit     |  0.00000 |  0.00000 | h  | 23,26, 0 |||
435 |          | unit     |  0.00000 |  0.00000 | h  | 23,27, 0 |||
436 |          | unit     |  0.00000 |  0.00000 | h  | 23,28, 0 |||
437 |          | unit     |  0.00000 |  0.00000 | h  | 23,29, 0 |||
438 |          | unit     |  0.00000 |  0.00000 | h  | 23,30, 0 |||
439 |          | unit     |  0.00000 |  0.00000 | h  | 23,31, 0 |||
440 |          | unit     |  0.00000 |  0.00000 | h  | 23,32, 0 |||
441 |          | unit     |  0.00000 |  0.00000 | h  | 23,33, 0 |||
442 |          | unit     |  0.00000 |  0.00000 | h  | 23,34, 0 |||
443 |          | unit     |  0.00000 |  0.00000 | h  | 23,35, 0 |||
444 |          | unit     |  0.00000 |  0.00000 | h  | 23,36, 0 |||
445 |          | unit     |  0.00000 |  0.00000 | h  | 23,37, 0 |||
446 |          | unit     |  0.00000 |  0.00000 | h  | 23,38, 0 |||
447 |          | unit     |  0.00000 |  0.00000 | h  | 23,39, 0 |||
448 |          | unit     |  0.00000 |  0.00000 | h  | 23,40, 0 |||
449 |          | unit     |  0.00000 |  0.00000 | h  | 23,41, 0 |||
450 |          | unit     |  0.00000 |  0.00000 | h  | 23,42, 0 |||
451 |          | unit     |  0.00000 |  0.00000 | h  | 23,43, 0 |||
452 |          | unit     |  0.00000 |  0.00000 | h  | 23,44, 0 |||
453 |          | unit     |  0.00000 |  0.00000 | h  | 23,45, 0 |||
454 |          | unit     |  0.00000 |  0.00000 | h  | 23,46, 0 |||
455 |          | unit     |  0.00000 |  0.00000 | h  | 23,47, 0 |||
456 |          | unit     |  0.00000 |  0.00000 | h  | 23,48, 0 |||
457 |          | unit     |  0.00000 |  0.00000 | h  | 23,49, 0 |||
458 |          | unit     |  0.00000 |  0.00000 | h  | 23,50, 0 |||
459 |          | unit     |  0.00000 |  0.00000 | h  | 23,51, 0 |||
460 |          | unit     |  0.00000 |  0.00000 | h  | 23,52, 0 |||
461 |          | unit     |  0.00000 |  0.00000 | h  | 23,53, 0 |||
462 |          | unit     |  0.00000 |  0.00000 | h  | 23,54, 0 |||
463 |          | unit     |  0.00000 |  0.00000 | h  | 23,55, 0 |||
464 |          | unit     |  0.00000 |  0.00000 | h  | 23,56, 0 |||
465 |          | unit     |  0.00000 |  0.00000 | h  | 23,57, 0 |||
466 |          | unit     |  0.00000 |  0.00000 | h  | 23,58, 0 |||
467 |          | unit     |  0.00000 |  0.00000 | h  | 23,59, 0 |||
468 |          | unit     |  0.00000 |  0.00000 | h  | 23,60, 0 |||
469 |          | unit     |  0.00000 |  0.00000 | h  | 23,61, 0 |||
470 |          | unit     |  0.00000 |  0.00000 | h  | 23,62, 0 |||
471 |          | unit     |  0.00000 |  0.00000 | h  | 23,63, 0 |||
472 |          | unit     |  0.00000 |  0.00000 | h  | 23,64, 0 |||
473 |          | unit     |  0.00000 |  0.00000 | h  | 23,65, 0 |||
474 |          | unit     |  0.00000 |  0.00000 | h  | 23,66, 0 |||
475 |          | unit     |  0.00000 |  0.00000 | h  | 23,67, 0 |||
476 |          | unit     |  0.00000 |  0.00000 | h  | 23,68, 0 |||
477 |          | unit     |  0.00000 |  0.00000 | h  | 23,69, 0 |||
478 |          | unit     |  0.00000 |  0.00000 | h  | 23,70, 0 |||
479 |          | unit     |  0.00000 |  0.00000 | h  | 23,71, 0 |||
480 |          | unit     |  0.00000 |  0.00000 | h  | 23,72, 0 |||
481 |          | unit     |  0.00000 |  0.00000 | h  | 23,73, 0 |||
482 |          | unit     |  0.00000 |  0.00000 | h  | 23,74, 0 |||
483 |          | unit     |  0.00000 |  0.00000 | h  | 23,75, 0 |||
484 |          | unit     |  0.00000 |  0.00000 | h  | 23,76, 0 |||
485 |          | unit     |  0.00000 |  0.00000 | h  | 23,77, 0 |||
486 |          | unit     |  0.00000 |  0.00000 | h  | 23,78, 0 |||
487 |          | unit     |  0.00000 |  0.00000 | h  | 23,79, 0 |||
488 |          | unit     |  0.00000 |  0.00000 | h  | 23,80, 0 |||
489 |          | unit     |  0.00000 |  0.00000 | h  | 23,81, 0 |||
490 |          | unit     |  0.00000 |  0.00000 | h  | 23,82, 0 |||
491 |          | unit     |  0.00000 |  0.00000 | h  | 23,83, 0 |||
492 |          | unit     |  0.00000 |  0.00000 | h  | 23,84, 0 |||
493 |          | unit     |  0.00000 |  0.00000 | h  | 23,85, 0 |||
494 |          | unit     |  0.00000 |  0.00000 | h  | 23,86, 0 |||
495 |          | unit     |  0.00000 |  0.00000 | h  | 23,87, 0 |||
496 |          | unit     |  0.00000 |  0.00000 | h  | 23,88, 0 |||
497 |          | unit     |  0.00000 |  0.00000 | h  | 23,89, 0 |||
498 |          | unit     |  0.00000 |  0.00000 | h  | 23,90, 0 |||
499 |          | unit     |  0.00000 |  0.00000 | h  | 23,91, 0 |||
500 |          | unit     |  0.00000 |  0.00000 | h  | 23,92, 0 |||
501 |          | unit     |  0.00000 |  0.00000 | h  | 23,93, 0 |||
502 |          | unit     |  0.00000 |  0.00000 | h  | 23,94, 0 |||
503 |          | unit     |  0.00000 |  0.00000 | h  | 23,95, 0 |||
504 |          | unit     |  0.00000 |  0.00000 | h  | 23,96, 0 |||
505 |          | unit     |  0.00000 |  0.00000 | h  | 23,97, 0 |||
506 |          | unit     |  0.00000 |  0.00000 | h  | 23,98, 0 |||
507 |          | unit     |  0.00000 |  0.00000 | h  | 23,99, 0 |||
508 |          | unit     |  0.00000 |  0.00000 | h  | 23,100, 0 |||
509 |          | unit     |  0.00000 |  0.00000 | o  | 26, 1, 0 |||
510 |          | unit     |  0.00000 |  0.00000 | o  | 26, 2, 0 |||
511 |          | unit     |  0.00000 |  0.00000 | o  | 26, 3, 0 |||
----|----------|----------|----------|----------|----|----------|----------|----------|-------


connection definition section :

target | site | source:weight
-------|------|----------------------------------------------------------------------------------------------------------------
   409 |      |   1: 0.00000,   2: 0.00000,   3: 0.00000,   4: 0.00000,   5: 0.00000,   6: 0.00000,   7: 0.00000,   8: 0.00000,   9: 0.00000,  10: 0.00000,  11: 0.00000,  12: 0.00000,  13: 0.00000,  14: 0.00000,  15: 0.00000,  16: 0.00000,  17: 0.00000,  18: 0.00000,  19: 0.00000,  20: 0.00000,  21: 0.00000,  22: 0.00000,  23: 0.00000,  24: 0.00000,  25: 0.00000,  26: 0.00000,  27: 0.00000,  28: 0.00000,  29: 0.00000,  30: 0.00000,  31: 0.00000,  32: 0.00000,  33: 0.00000,  34: 0.00000,  35: 0.00000,  36: 0.00000,  37: 0.00000,  38: 0.00000,  39: 0.00000,  40: 0.00000,  41: 0.00000,  42: 0.00000,  43: 0.00000,  44: 0.00000,  45: 0.00000,  46: 0.00000,  47: 0.00000,  48: 0.00000,  49: 0.00000,  50: 0.00000,  51: 0.00000,  52: 0.00000,  53: 0.00000,  54: 0.00000,  55: 0.00000,  56: 0.00000,  57: 0.00000,  58: 0.00000,  59: 0.00000,  60: 0.00000,  61: 0.00000,  62: 0.00000,  63: 0.00000,  64: 0.00000,  65: 0.00000,  66: 0.00000,  67: 0.00000,  68: 0.00000,  69: 0.00000,  70: 0.00000,  71: 0.00000,  72: 0.00000,  73: 0.00000,  74: 0.00000,  75: 0.00000,  76: 0.00000,  77: 0.00000,  78: 0.00000,  79: 0.00000,  80: 0.00000,  81: 0.00000,  82: 0.00000,  83: 0.00000,  84: 0.00000,  85: 0.00000,  86: 0.00000,  87: 0.00000,  88: 0.00000,  89: 0.00000,  90: 0.00000,  91: 0.00000,  92: 0.00000,  93: 0.00000,  94: 0.00000,  95: 0.00000,  96: 0.00000,  97: 0.00000,  98: 0.00000,  99: 0.00000, 100: 0.00000, 101: 0.00000, 102: 0.00000, 103: 0.00000, 104: 0.00000, 105: 0.00000, 106: 0.00000, 107: 0.00000, 108: 0.00000, 109: 0.00000, 110: 0.00000, 111: 0.00000, 112: 0.00000, 113: 0.00000, 114: 0.00000, 115: 0.00000, 116: 0.00000, 117: 0.00000, 118: 0.00000, 119: 0.00000, 120: 0.00000, 121: 0.00000, 122: 0.00000, 123: 0.00000, 124: 0.00000, 125: 0.00000, 126: 0.00000, 127: 0.00000, 128: 0.00000, 129: 0.00000, 130: 0.00000, 131: 0.00000, 132: 0.00000, 133: 0.00000, 134: 0.00000, 135: 0.00000, 136: 0.00000, 137: 0.00000, 138: 0.00000, 139: 0.00000, 140: 0.00000, 141: 0.00000, 142: 0.00000, 143: 0.00000, 144: 0.00000, 145: 0.00000, 146: 0.00000, 147: 0.00000, 148: 0.00000, 149: 0.00000, 150: 0.00000, 151: 0.00000, 152: 0.00000, 153: 0.00000, 154: 0.00000, 155: 0.00000, 156: 0.00000, 157: 0.00000, 158: 0.00000, 159: 0.00000, 160: 0.00000, 161: 0.00000, 162: 0.00000, 163: 0.00000, 164: 0.00000, 165: 0.00000, 166: 0.00000, 167: 0.00000, 168: 0.00000, 169: 0.00000, 170: 0.00000, 171: 0.00000, 172: 0.00000, 173: 0.00000, 174: 0.00000, 175: 0.00000, 176: 0.00000, 177: 0.00000, 178: 0.00000, 179: 0.00000, 180: 0.00000, 181: 0.00000, 182: 0.00000, 183: 0.00000, 184: 0.00000, 185: 0.00000, 186: 0.00000, 187: 0.00000, 188: 0.00000, 189: 0.00000, 190: 0.00000, 191: 0.00000, 192: 0.00000, 193: 0.00000, 194: 0.00000, 195: 0.00000, 196: 0.00000, 197: 0.00000, 198: 0.00000, 199: 0.00000, 200: 0.00000, 201: 0.00000, 202: 0.00000, 203: 0.00000, 204: 0.00000, 205: 0.00000, 206: 0.00000, 207: 0.00000, 208: 0.00000, 209: 0.00000, 210: 0.00000, 211: 0.00000, 212: 0.00000, 213: 0.00000, 214: 0.00000, 215: 0.00000, 216: 0.00000, 217: 0.00000, 218: 0.00000, 219: 0.00000, 220: 0.00000, 221: 0.00000, 222: 0.00000, 223: 0.00000, 224: 0.00000, 225: 0.00000, 226: 0.00000, 227: 0.00000, 228: 0.00000, 229: 0.00000, 230: 0.00000, 231: 0.00000, 232: 0.00000, 233: 0.00000, 234: 0.00000, 235: 0.00000, 236: 0.00000, 237: 0.00000, 238: 0.00000, 239: 0.00000, 240: 0.00000, 241: 0.00000, 242: 0.00000, 243: 0.00000, 244: 0.00000, 245: 0.00000, 246: 0.00000, 247: 0.00000, 248: 0.00000, 249: 0.00000, 250: 0.00000, 251: 0.00000, 252: 0.00000, 253: 0.00000, 254: 0.00000, 255: 0.00000, 256: 0.00000, 257: 0.00000, 258: 0.00000, 259: 0.00000, 260: 0.00000, 261: 0.00000, 262: 0.00000, 263: 0.00000, 264: 0.00000, 265: 0.00000, 266: 0.00000, 267: 0.00000, 268: 0.00000, 269: 0.00000, 270: 0.00000, 271: 0.00000, 272: 0.00000, 273: 0.00000, 274: 0.00000, 275: 0.00000, 276: 0.00000, 277: 0.00000, 278: 0.00000, 279: 0.00000, 280: 0.00000, 281: 0.00000, 282: 0.00000, 283: 0.00000, 284: 0.00000, 285: 0.00000, 286: 0.00000, 287: 0.00000, 288: 0.00000, 289: 0.00000, 290: 0.00000, 291: 0.00000, 292: 0.00000, 293: 0.00000, 294: 0.00000, 295: 0.00000, 296: 0.00000, 297: 0.00000, 298: 0.00000, 299: 0.00000, 300: 0.00000, 301: 0.00000, 302: 0.00000, 303: 0.00000, 304: 0.00000, 305: 0.00000, 306: 0.00000, 307: 0.00000, 308: 0.00000, 309: 0.00000, 310: 0.00000, 311: 0.00000, 312: 0.00000, 313: 0.00000, 314: 0.00000, 315: 0.00000, 316: 0.00000, 317: 0.00000, 318: 0.00000, 319: 0.00000, 320: 0.00000, 321: 0.00000, 322: 0.00000, 323: 0.00000, 324: 0.00000, 325: 0.00000, 326: 0.00000, 327: 0.00000, 328: 0.00000, 329: 0.00000, 330: 0.00000, 331: 0.00000, 332: 0.00000, 333: 0.00000, 334: 0.00000, 335: 0.00000, 336: 0.00000, 337: 0.00000, 338: 0.00000, 339: 0.00000, 340: 0.00000, 341: 0.00000, 342: 0.00000, 343: 0.00000, 344: 0.00000, 345: 0.00000, 346: 0.00000, 347: 0.00000, 348: 0.00000, 349: 0.00000, 350: 0.00000, 351: 0.00000, 352: 0.00000, 353: 0.00000, 354: 0.00000, 355: 0.00000, 356: 0.00000, 357: 0.00000, 358: 0.00000, 359: 0.00000, 360: 0.00000, 361: 0.00000, 362: 0.00000, 363: 0.00000, 364: 0.00000, 365: 0.00000, 366: 0.00000, 367: 0.00000, 368: 0.00000, 369: 0.00000, 370: 0.00000, 371: 0.00000, 372: 0.00000, 373: 0.00000, 374: 0.00000, 375: 0.00000, 376: 0.00000, 377: 0.00000, 378: 0.00000, 379: 0.00000, 380: 0.00000, 381: 0.00000, 382: 0.00000, 383: 0.00000, 384: 0.00000, 385: 0.00000, 386: 0.00000, 387: 0.00000, 388: 0.00000, 389: 0.00000, 390: 0.00000, 391: 0.00000, 392: 0.00000, 393: 0.00000, 394: 0.00000, 395: 0.00000, 396: 0.00000, 397: 0.00000, 398: 0.00000, 399: 0.00000, 400: 0.00000, 401: 0.00000, 402: 0.00000, 403: 0.00000, 404: 0.00000, 405: 0.00000, 406: 0.00000, 407: 0.00000, 408: 0.00000
   410 |      |   1: 0.00000,   2: 0.00000,   3: 0.00000,   4: 0.00000,   5: 0.00000,   6: 0.00000,   7: 0.00000,   8: 0.00000,   9: 0.00000,  10: 0.00000,  11: 0.00000,  12: 0.00000,  13: 0.00000,  14: 0.00000,  15: 0.00000,  16: 0.00000,  17: 0.00000,  18: 0.00000,  19: 0.00000,  20: 0.00000,  21: 0.00000,  22: 0.00000,  23: 0.00000,  24: 0.00000,  25: 0.00000,  26: 0.00000,  27: 0.00000,  28: 0.00000,  29: 0.00000,  30: 0.00000,  31: 0.00000,  32: 0.00000,  33: 0.00000,  34: 0.00000,  35: 0.00000,  36: 0.00000,  37: 0.00000,  38: 0.00000,  39: 0.00000,  40: 0.00000,  41: 0.00000,  42: 0.00000,  43: 0.00000,  44: 0.00000,  45: 0.00000,  46: 0.00000,  47: 0.00000,  48: 0.00000,  49: 0.00000,  50: 0.00000,  51: 0.00000,  52: 0.00000,  53: 0.00000,  54: 0.00000,  55: 0.00000,  56: 0.00000,  57: 0.00000,  58: 0.00000,  59: 0.00000,  60: 0.00000,  61: 0.00000,  62: 0.00000,  63: 0.00000,  64: 0.00000,  65: 0.00000,  66: 0.00000,  67: 0.00000,  68: 0.00000,  69: 0.00000,  70: 0.00000,  71: 0.00000,  72: 0.00000,  73: 0.00000,  74: 0.00000,  75: 0.00000,  76: 0.00000,  77: 0.00000,  78: 0.00000,  79: 0.00000,  80: 0.00000,  81: 0.00000,  82: 0.00000,  83: 0.00000,  84: 0.00000,  85: 0.00000,  86: 0.00000,  87: 0.00000,  88: 0.00000,  89: 0.00000,  90: 0.00000,  91: 0.00000,  92: 0.00000,  93: 0.00000,  94: 0.00000,  95: 0.00000,  96: 0.00000,  97: 0.00000,  98: 0.00000,  99: 0.00000, 100: 0.00000, 101: 0.00000, 102: 0.00000, 103: 0.00000, 104: 0.00000, 105: 0.00000, 106: 0.00000, 107: 0.00000, 108: 0.00000, 109: 0.00000, 110: 0.00000, 111: 0.00000, 112: 0.00000, 113: 0.00000, 114: 0.00000, 115: 0.00000, 116: 0.00000, 117: 0.00000, 118: 0.00000, 119: 0.00000, 120: 0.00000, 121: 0.00000, 122: 0.00000, 123: 0.00000, 124: 0.00000, 125: 0.00000, 126: 0.00000, 127: 0.00000, 128: 0.00000, 129: 0.00000, 130: 0.00000, 131: 0.00000, 132: 0.00000, 133: 0.00000, 134: 0.00000, 135: 0.00000, 136: 0.00000, 137: 0.00000, 138: 0.00000, 139: 0.00000, 140: 0.00000, 141: 0.00000, 142: 0.00000, 143: 0.00000, 144: 0.00000, 145: 0.00000, 146: 0.00000, 147: 0.00000, 148: 0.00000, 149: 0.00000, 150: 0.00000, 151: 0.00000, 152: 0.00000, 153: 0.00000, 154: 0.00000, 155: 0.00000, 156: 0.00000, 157: 0.00000, 158: 0.00000, 159: 0.00000, 160: 0.00000, 161: 0.00000, 162: 0.00000, 163: 0.00000, 164: 0.00000, 165: 0.00000, 166: 0.00000, 167: 0.00000, 168: 0.00000, 169: 0.00000, 170: 0.00000, 171: 0.00000, 172: 0.00000, 173: 0.00000, 174: 0.00000, 175: 0.00000, 176: 0.00000, 177: 0.00000, 178: 0.00000, 179: 0.00000, 180: 0.00000, 181: 0.00000, 182: 0.00000, 183: 0.00000, 184: 0.00000, 185: 0.00000, 186: 0.00000, 187: 0.00000, 188: 0.00000, 189: 0.00000, 190: 0.00000, 191: 0.00000, 192: 0.00000, 193: 0.00000, 194: 0.00000, 195: 0.00000, 196: 0.00000, 197: 0.00000, 198: 0.00000, 199: 0.00000, 200: 0.00000, 201: 0.00000, 202: 0.00000, 203: 0.00000, 204: 0.00000, 205: 0.00000, 206: 0.00000, 207: 0.00000, 208: 0.00000, 209: 0.00000, 210: 0.00000, 211: 0.00000, 212: 0.00000, 213: 0.00000, 214: 0.00000, 215: 0.00000, 216: 0.00000, 217: 0.00000, 218: 0.00000, 219: 0.00000, 220: 0.00000, 221: 0.00000, 222: 0.00000, 223: 0.00000, 224: 0.00000, 225: 0.00000, 226: 0.00000, 227: 0.00000, 228: 0.00000, 229: 0.00000, 230: 0.00000, 231: 0.00000, 232: 0.00000, 233: 0.00000, 234: 0.00000, 235: 0.00000, 236: 0.00000, 237: 0.00000, 238: 0.00000, 239: 0.00000, 240: 0.00000, 241: 0.00000, 242: 0.00000, 243: 0.00000, 244: 0.00000, 245: 0.00000, 246: 0.00000, 247: 0.00000, 248: 0.00000, 249: 0.00000, 250: 0.00000, 251: 0.00000, 252: 0.00000, 253: 0.00000, 254: 0.00000, 255: 0.00000, 256: 0.00000, 257: 0.00000, 258: 0.00000, 259: 0.00000, 260: 0.00000, 261: 0.00000, 262: 0.00000, 263: 0.00000, 264: 0.00000, 265: 0.00000, 266: 0.00000, 267: 0.00000, 268: 0.00000, 269: 0.00000, 270: 0.00000, 271: 0.00000, 272: 0.00000, 273: 0.00000, 274: 0.00000, 275: 0.00000, 276: 0.00000, 277: 0.00000, 278: 0.00000, 279: 0.00000, 280: 0.00000, 281: 0.00000, 282: 0.00000, 283: 0.00000, 284: 0.00000, 285: 0.00000, 286: 0.00000, 287: 0.00000, 288: 0.00000, 289: 0.00000, 290: 0.00000, 291: 0.00000, 292: 0.00000, 293: 0.00000, 294: 0.00000, 295: 0.00000, 296: 0.00000, 297: 0.00000, 298: 0.00000, 299: 0.00000, 300: 0.00000, 301: 0.00000, 302: 0.00000, 303: 0.00000, 304: 0.00000, 305: 0.00000, 306: 0.00000, 307: 0.00000, 308: 0.00000, 309: 0.00000, 310: 0.00000, 311: 0.00000, 312: 0.00000, 313: 0.00000, 314: 0.00000, 315: 0.00000, 316: 0.00000, 317: 0.00000, 318: 0.00000, 319: 0.00000, 320: 0.00000, 321: 0.00000, 322: 0.00000, 323: 0.00000, 324: 0.00000, 325: 0.00000, 326: 0.00000, 327: 0.00000, 328: 0.00000, 329: 0.00000, 330: 0.00000, 331: 0.00000, 332: 0.00000, 333: 0.00000, 334: 0.00000, 335: 0.00000, 336: 0.00000, 337: 0.00000, 338: 0.00000, 339: 0.00000, 340: 0.00000, 341: 0.00000, 342: 0.00000, 343: 0.00000, 344: 0.00000, 345: 0.00000, 346: 0.00000, 347: 0.00000, 348: 0.00000, 349: 0.00000, 350: 0.00000, 351: 0.00000, 352: 0.00000, 353: 0.00000, 354: 0.00000, 355: 0.00000, 356: 0.00000, 357: 0.00000, 358: 0.00000, 359: 0.00000, 360: 0.00000, 361: 0.00000, 362: 0.00000, 363: 0.00000, 364: 0.00000, 365: 0.00000, 366: 0.00000, 367: 0.00000, 368: 0.00000, 369: 0.00000, 370: 0.00000, 371: 0.00000, 372: 0.00000, 373: 0.00000, 374: 0.00000, 375: 0.00000, 376: 0.00000, 377: 0.00000, 378: 0.00000, 379: 0.00000, 380: 0.00000, 381: 0.00000, 382: 0.00000, 383: 0.00000, 384: 0.00000, 385: 0.00000, 386: 0.00000, 387: 0.00000, 388: 0.00000, 389: 0.00000, 390: 0.00000, 391: 0.00000, 392: 0.00000, 393: 0.00000, 394: 0.00000, 395: 0.00000, 396: 0.00000, 397: 0.00000, 398: 0.00000, 399: 0.00000, 400: 0.00000, 401: 0.00000, 402: 0.00000, 403: 0.00000, 404: 0.00000, 405: 0.00000, 406: 0.00000, 407: 0.00000, 408: 0.00000
   411 |      |   1: 0.00000,   2: 0.00000,   3: 0.00000,   4: 0.00000,   5: 0.00000,   6: 0.00000,   7: 0.00000,   8: 0.00000,   9: 0.00000,  10: 0.00000,  11: 0.00000,  12: 0.00000,  13: 0.00000,  14: 0.00000,  15: 0.00000,  16: 0.00000,  17: 0.00000,  18: 0.00000,  19: 0.00000,  20: 0.00000,  21: 0.00000,  22: 0.00000,  23: 0.00000,  24: 0.00000,  25: 0.00000,  26: 0.00000,  27: 0.00000,  28: 0.00000,  29: 0.00000,  30: 0.00000,  31: 0.00000,  32: 0.00000,  33: 0.00000,  34: 0.00000,  35: 0.00000,  36: 0.00000,  37: 0.00000,  38: 0.00000,  39: 0.00000,  40: 0.00000,  41: 0.00000,  42: 0.00000,  43: 0.00000,  44: 0.00000,  45: 0.00000,  46: 0.00000,  47: 0.00000,  48: 0.00000,  49: 0.00000,  50: 0.00000,  51: 0.00000,  52: 0.00000,  53: 0.00000,  54: 0.00000,  55: 0.00000,  56: 0.00000,  57: 0.00000,  58: 0.00000,  59: 0.00000,  60: 0.00000,  61: 0.00000,  62: 0.00000,  63: 0.00000,  64: 0.00000,  65: 0.00000,  66: 0.00000,  67: 0.00000,  68: 0.00000,  69: 0.00000,  70: 0.00000,  71: 0.00000,  72: 0.00000,  73: 0.00000,  74: 0.00000,  75: 0.00000,  76: 0.00000,  77: 0.00000,  78: 0.00000,  79: 0.00000,  80: 0.00000,  81: 0.00000,  82: 0.00000,  83: 0.00000,  84: 0.00000,  85: 0.00000,  86: 0.00000,  87: 0.00000,  88: 0.00000,  89: 0.00000,  90: 0.00000,  91: 0.00000,  92: 0.00000,  93: 0.00000,  94: 0.00000,  95: 0.00000,  96: 0.00000,  97: 0.00000,  98: 0.00000,  99: 0.00000, 100: 0.00000, 101: 0.00000, 102: 0.00000, 103: 0.00000, 104: 0.00000, 105: 0.00000, 106: 0.00000, 107: 0.00000, 108: 0.00000, 109: 0.00000, 110: 0.00000, 111: 0.00000, 112: 0.00000, 113: 0.00000, 114: 0.00000, 115: 0.00000, 116: 0.00000, 117: 0.00000, 118: 0.00000, 119: 0.00000, 120: 0.00000, 121: 0.00000, 122: 0.00000, 123: 0.00000, 124: 0.00000, 125: 0.00000, 126: 0.00000, 127: 0.00000, 128: 0.00000, 129: 0.00000, 130: 0.00000, 131: 0.00000, 132: 0.00000, 133: 0.00000, 134: 0.00000, 135: 0.00000, 136: 0.00000, 137: 0.00000, 138: 0.00000, 139: 0.00000, 140: 0.00000, 141: 0.00000, 142: 0.00000, 143: 0.00000, 144: 0.00000, 145: 0.00000, 146: 0.00000, 147: 0.00000, 148: 0.00000, 149: 0.00000, 150: 0.00000, 151: 0.00000, 152: 0.00000, 153: 0.00000, 154: 0.00000, 155: 0.00000, 156: 0.00000, 157: 0.00000, 158: 0.00000, 159: 0.00000, 160: 0.00000, 161: 0.00000, 162: 0.00000, 163: 0.00000, 164: 0.00000, 165: 0.00000, 166: 0.00000, 167: 0.00000, 168: 0.00000, 169: 0.00000, 170: 0.00000, 171: 0.00000, 172: 0.00000, 173: 0.00000, 174: 0.00000, 175: 0.00000, 176: 0.00000, 177: 0.00000, 178: 0.00000, 179: 0.00000, 180: 0.00000, 181: 0.00000, 182: 0.00000, 183: 0.00000, 184: 0.00000, 185: 0.00000, 186: 0.00000, 187: 0.00000, 188: 0.00000, 189: 0.00000, 190: 0.00000, 191: 0.00000, 192: 0.00000, 193: 0.00000, 194: 0.00000, 195: 0.00000, 196: 0.00000, 197: 0.00000, 198: 0.00000, 199: 0.00000, 200: 0.00000, 201: 0.00000, 202: 0.00000, 203: 0.00000, 204: 0.00000, 205: 0.00000, 206: 0.00000, 207: 0.00000, 208: 0.00000, 209: 0.00000, 210: 0.00000, 211: 0.00000, 212: 0.00000, 213: 0.00000, 214: 0.00000, 215: 0.00000, 216: 0.00000, 217: 0.00000, 218: 0.00000, 219: 0.00000, 220: 0.00000, 221: 0.00000, 222: 0.00000, 223: 0.00000, 224: 0.00000, 225: 0.00000, 226: 0.00000, 227: 0.00000, 228: 0.00000, 229: 0.00000, 230: 0.00000, 231: 0.00000, 232: 0.00000, 233: 0.00000, 234: 0.00000, 235: 0.00000, 236: 0.00000, 237: 0.00000, 238: 0.00000, 239: 0.00000, 240: 0.00000, 241: 0.00000, 242: 0.00000, 243: 0.00000, 244: 0.00000, 245: 0.00000, 246: 0.00000, 247: 0.00000, 248: 0.00000, 249: 0.00000, 250: 0.00000, 251: 0.00000, 252: 0.00000, 253: 0.00000, 254: 0.00000, 255: 0.00000, 256: 0.00000, 257: 0.00000, 258: 0.00000, 259: 0.00000, 260: 0.00000, 261: 0.00000, 262: 0.00000, 263: 0.00000, 264: 0.00000, 265: 0.00000, 266: 0.00000, 267: 0.00000, 268: 0.00000, 269: 0.00000, 270: 0.00000, 271: 0.00000, 272: 0.00000, 273: 0.00000, 274: 0.00000, 275: 0.00000, 276: 0.00000, 277: 0.00000, 278: 0.00000, 279: 0.00000, 280: 0.00000, 281: 0.00000, 282: 0.00000, 283: 0.00000, 284: 0.00000, 285: 0.00000, 286: 0.00000, 287: 0.00000, 288: 0.00000, 289: 0.00000, 290: 0.00000, 291: 0.00000, 292: 0.00000, 293: 0.00000, 294: 0.00000, 295: 0.00000, 296: 0.00000, 297: 0.00000, 298: 0.00000, 299: 0.00000, 300: 0.00000, 301: 0.00000, 302: 0.00000, 303: 0.00000, 304: 0.00000, 305: 0.00000, 306: 0.00000, 307: 0.00000, 308: 0.00000, 309: 0.00000, 310: 0.00000, 311: 0.00000, 312: 0.00000, 313: 0.00000, 314: 0.00000, 315: 0.00000, 316: 0.00000, 317: 0.00000, 318: 0.00000, 319: 0.00000, 320: 0.00000, 321: 0.00000, 322: 0.00000, 323: 0.00000, 324: 0.00000, 325: 0.00000, 326: 0.00000, 327: 0.00000, 328: 0.00000, 329: 0.00000, 330: 0.00000, 331: 0.00000, 332: 0.00000, 333: 0.00000, 334: 0.00000, 335: 0.00000, 336: 0.00000, 337: 0.00000, 338: 0.00000, 339: 0.00000, 340: 0.00000, 341: 0.00000, 342: 0.00000, 343: 0.00000, 344: 0.00000, 345: 0.00000, 346: 0.00000, 347: 0.00000, 348: 0.00000, 349: 0.00000, 350: 0.00000, 351: 0.00000, 352: 0.00000, 353: 0.00000, 354: 0.00000, 355: 0.00000, 356: 0.00000, 357: 0.00000, 358: 0.00000, 359: 0.00000, 360: 0.00000, 361: 0.00000, 362: 0.00000, 363: 0.00000, 364: 0.00000, 365: 0.00000, 366: 0.00000, 367: 0.00000, 368: 0.00000, 369: 0.00000, 370: 0.00000, 371: 0.00000, 372: 0.00000, 373: 0.00000, 374: 0.00000, 375: 0.00000, 376: 0.00000, 377: 0.00000, 378: 0.00000, 379: 0.00000, 380: 0.00000, 381: 0.00000, 382: 0.00000, 383: 0.00000, 384: 0.00000, 385: 0.00000, 386: 0.00000, 387: 0.00000, 388: 0.00000, 389: 0.00000, 390: 0.00000, 391: 0.00000, 392: 0.00000, 393: 0.00000, 394: 0.00000, 395: 0.00000, 396: 0.00000, 397: 0.00000, 398: 0.00000, 399: 0.00000, 400: 0.00000, 401: 0.00000, 402: 0.00000, 403: 0.00000, 404: 0.00000, 405: 0.00000, 406: 0.00000, 407: 0.00000, 408: 0.00000
   412 |      |   1: 0.00000,   2: 0.00000,   3: 0.00000,   4: 0.00000,   5: 0.00000,   6: 0.00000,   7: 0.00000,   8: 0.00000,   9: 0.00000,  10: 0.00000,  11: 0.00000,  12: 0.00000,  13: 0.00000,  14: 0.00000,  15: 0.00000,  16: 0.00000,  17: 0.00000,  18: 0.00000,  19: 0.00000,  20: 0.00000,  21: 0.00000,  22: 0.00000,  23: 0.00000,  24: 0.00000,  25: 0.00000,  26: 0.00000,  27: 0.00000,  28: 0.00000,  29: 0.00000,  30: 0.00000,  31: 0.00000,  32: 0.00000,  33: 0.00000,  34: 0.00000,  35: 0.00000,  36: 0.00000,  37: 0.00000,  38: 0.00000,  39: 0.00000,  40: 0.00000,  41: 0.00000,  42: 0.00000,  43: 0.00000,  44: 0.00000,  45: 0.00000,  46: 0.00000,  47: 0.00000,  48: 0.00000,  49: 0.00000,  50: 0.00000,  51: 0.00000,  52: 0.00000,  53: 0.00000,  54: 0.00000,  55: 0.00000,  56: 0.00000,  57: 0.00000,  58: 0.00000,  59: 0.00000,  60: 0.00000,  61: 0.00000,  62: 0.00000,  63: 0.00000,  64: 0.00000,  65: 0.00000,  66: 0.00000,  67: 0.00000,  68: 0.00000,  69: 0.00000,  70: 0.00000,  71: 0.00000,  72: 0.00000,  73: 0.00000,  74: 0.00000,  75: 0.00000,  76: 0.00000,  77: 0.00000,  78: 0.00000,  79: 0.00000,  80: 0.00000,  81: 0.00000,  82: 0.00000,  83: 0.00000,  84: 0.00000,  85: 0.00000,  86: 0.00000,  87: 0.00000,  88: 0.00000,  89: 0.00000,  90: 0.00000,  91: 0.00000,  92: 0.00000,  93: 0.00000,  94: 0.00000,  95: 0.00000,  96: 0.00000,  97: 0.00000,  98: 0.00000,  99: 0.00000, 100: 0.00000, 101: 0.00000, 102: 0.00000, 103: 0.00000, 104: 0.00000, 105: 0.00000, 106: 0.00000, 107: 0.00000, 108: 0.00000, 109: 0.00000, 110: 0.00000, 111: 0.00000, 112: 0.00000, 113: 0.00000, 114: 0.00000, 115: 0.00000, 116: 0.00000, 117: 0.00000, 118: 0.00000, 119: 0.00000, 120: 0.00000, 121: 0.00000, 122: 0.00000, 123: 0.00000, 124: 0.00000, 125: 0.00000, 126: 0.00000, 127: 0.00000, 128: 0.00000, 129: 0.00000, 130: 0.00000, 131: 0.00000, 132: 0.00000, 133: 0.00000, 134: 0.00000, 135: 0.00000, 136: 0.00000, 137: 0.00000, 138: 0.00000, 139: 0.00000, 140: 0.00000, 141: 0.00000, 142: 0.00000, 143: 0.00000, 144: 0.00000, 145: 0.00000, 146: 0.00000, 147: 0.00000, 148: 0.00000, 149: 0.00000, 150: 0.00000, 151: 0.00000, 152: 0.00000, 153: 0.00000, 154: 0.00000, 155: 0.00000, 156: 0.00000, 157: 0.00000, 158: 0.00000, 159: 0.00000, 160: 0.00000, 161: 0.00000, 162: 0.00000, 163: 0.00000, 164: 0.00000, 165: 0.00000, 166: 0.00000, 167: 0.00000, 168: 0.00000, 169: 0.00000, 170: 0.00000, 171: 0.00000, 172: 0.00000, 173: 0.00000, 174: 0.00000, 175: 0.00000, 176: 0.00000, 177: 0.00000, 178: 0.00000, 179: 0.00000, 180: 0.00000, 181: 0.00000, 182: 0.00000, 183: 0.00000, 184: 0.00000, 185: 0.00000, 186: 0.00000, 187: 0.00000, 188: 0.00000, 189: 0.00000, 190: 0.00000, 191: 0.00000, 192: 0.00000, 193: 0.00000, 194: 0.00000, 195: 0.00000, 196: 0.00000, 197: 0.00000, 198: 0.00000, 199: 0.00000, 200: 0.00000, 201: 0.00000, 202: 0.00000, 203: 0.00000, 204: 0.00000, 205: 0.00000, 206: 0.00000, 207: 0.00000, 208: 0.00000, 209: 0.00000, 210: 0.00000, 211: 0.00000, 212: 0.00000, 213: 0.00000, 214: 0.00000, 215: 0.00000, 216: 0.00000, 217: 0.00000, 218: 0.00000, 219: 0.00000, 220: 0.00000, 221: 0.00000, 222: 0.00000, 223: 0.00000, 224: 0.00000, 225: 0.00000, 226: 0.00000, 227: 0.00000, 228: 0.00000, 229: 0.00000, 230: 0.00000, 231: 0.00000, 232: 0.00000, 233: 0.00000, 234: 0.00000, 235: 0.00000, 236: 0.00000, 237: 0.00000, 238: 0.00000, 239: 0.00000, 240: 0.00000, 241: 0.00000, 242: 0.00000, 243: 0.00000, 244: 0.00000, 245: 0.00000, 246: 0.00000, 247: 0.00000, 248: 0.00000, 249: 0.00000, 250: 0.00000, 251: 0.00000, 252: 0.00000, 253: 0.00000, 254: 0.00000, 255: 0.00000, 256: 0.00000, 257: 0.00000, 258: 0.00000, 259: 0.00000, 260: 0.00000, 261: 0.00000, 262: 0.00000, 263: 0.00000, 264: 0.00000, 265: 0.00000, 266: 0.00000, 267: 0.00000, 268: 0.00000, 269: 0.00000, 270: 0.00000, 271: 0.00000, 272: 0.00000, 273: 0.00000, 274: 0.00000, 275: 0.00000, 276: 0.00000, 277: 0.00000, 278: 0.00000, 279: 0.00000, 280: 0.00000, 281: 0.00000, 282: 0.00000, 283: 0.00000, 284: 0.00000, 285: 0.00000, 286: 0.00000, 287: 0.00000, 288: 0.00000, 289: 0.00000, 290: 0.00000, 291: 0.00000, 292: 0.00000, 293: 0.00000, 294: 0.00000, 295: 0.00000, 296: 0.00000, 297: 0.00000, 298: 0.00000, 299: 0.00000, 300: 0.00000, 301: 0.00000, 302: 0.00000, 303: 0.00000, 304: 0.00000, 305: 0.00000, 306: 0.00000, 307: 0.00000, 308: 0.00000, 309: 0.00000, 310: 0.00000, 311: 0.00000, 312: 0.00000, 313: 0.00000, 314: 0.00000, 315: 0.00000, 316: 0.00000, 317: 0.00000, 318: 0.00000, 319: 0.00000, 320: 0.00000, 321: 0.00000, 322: 0.00000, 323: 0.00000, 324: 0.00000, 325: 0.00000, 326: 0.00000, 327: 0.00000, 328: 0.00000, 329: 0.00000, 330: 0.00000, 331: 0.00000, 332: 0.00000, 333: 0.00000, 334: 0.00000, 335: 0.00000, 336: 0.00000, 337: 0.00000, 338: 0.00000, 339: 0.00000, 340: 0.00000, 341: 0.00000, 342: 0.00000, 343: 0.00000, 344: 0.00000, 345: 0.00000, 346: 0.00000, 347: 0.00000, 348: 0.00000, 349: 0.00000, 350: 0.00000, 351: 0.00000, 352: 0.00000, 353: 0.00000, 354: 0.00000, 355: 0.00000, 356: 0.00000, 357: 0.00000, 358: 0.00000, 359: 0.00000, 360: 0.00000, 361: 0.00000, 362: 0.00000, 363: 0.00000, 364: 0.00000, 365: 0.00000, 366: 0.00000, 367: 0.00000, 368: 0.00000, 369: 0.00000, 370: 0.00000, 371: 0.00000, 372: 0.00000, 373: 0.00000, 374: 0.00000, 375: 0.00000, 376: 0.00000, 377: 0.00000, 378: 0.00000, 379: 0.00000, 380: 0.00000, 381: 0.00000, 382: 0.00000, 383: 0.00000, 384: 0.00000, 385: 0.00000, 386: 0.00000, 387: 0.00000, 388: 0.00000, 389: 0.00000, 390: 0.00000, 391: 0.00000, 392: 0.00000, 393: 0.00000, 394: 0.00000, 395: 0.00000, 396: 0.00000, 397: 0.00000, 398: 0.00000, 399: 0.00000, 400: 0.00000, 401: 0.00000, 402: 0.00000, 403: 0.00000, 404: 0.00000, 405: 0.00000, 406: 0.00000, 407: 0.00000, 408: 0.00000
   413 |      |   1: 0.00000,   2: 0.00000,   3: 0.00000,   4: 0.00000,   5: 0.00000,   6: 0.00000,   7: 0.00000,   8: 0.00000,   9: 0.00000,  10: 0.00000,  11: 0.00000,  12: 0.00000,  13: 0.00000,  14: 0.00000,  15: 0.00000,  16: 0.00000,  17: 0.00000,  18: 0.00000,  19: 0.00000,  20: 0.00000,  21: 0.00000,  22: 0.00000,  23: 0.00000,  24: 0.00000,  25: 0.00000,  26: 0.00000,  27: 0.00000,  28: 0.00000,  29: 0.00000,  30: 0.00000,  31: 0.00000,  32: 0.00000,  33: 0.00000,  34: 0.00000,  35: 0.00000,  36: 0.00000,  37: 0.00000,  38: 0.00000,  39: 0.00000,  40: 0.00000,  41: 0.00000,  42: 0.00000,  43: 0.00000,  44: 0.00000,  45: 0.00000,  46: 0.00000,  47: 0.00000,  48: 0.00000,  49: 0.00000,  50: 0.00000,  51: 0.00000,  52: 0.00000,  53: 0.00000,  54: 0.00000,  55: 0.00000,  56: 0.00000,  57: 0.00000,  58: 0.00000,  59: 0.00000,  60: 0.00000,  61: 0.00000,  62: 0.00000,  63: 0.00000,  64: 0.00000,  65: 0.00000,  66: 0.00000,  67: 0.00000,  68: 0.00000,  69: 0.00000,  70: 0.00000,  71: 0.00000,  72: 0.00000,  73: 0.00000,  74: 0.00000,  75: 0.00000,  76: 0.00000,  77: 0.00000,  78: 0.00000,  79: 0.00000,  80: 0.00000,  81: 0.00000,  82: 0.00000,  83: 0.00000,  84: 0.00000,  85: 0.00000,  86: 0.00000,  87: 0.00000,  88: 0.00000,  89: 0.00000,  90: 0.00000,  91: 0.00000,  92: 0.00000,  93: 0.00000,  94: 0.00000,  95: 0.00000,  96: 0.00000,  97: 0.00000,  98: 0.00000,  99: 0.00000, 100: 0.00000, 101: 0.00000, 102: 0.00000, 103: 0.00000, 104: 0.00000, 105: 0.00000, 106: 0.00000, 107: 0.00000, 108: 0.00000, 109: 0.00000, 110: 0.00000, 111: 0.00000, 112: 0.00000, 113: 0.00000, 114: 0.00000, 115: 0.00000, 116: 0.00000, 117: 0.00000, 118: 0.00000, 119: 0.00000, 120: 0.00000, 121: 0.00000, 122: 0.00000, 123: 0.00000, 124: 0.00000, 125: 0.00000, 126: 0.00000, 127: 0.00000, 128: 0.00000, 129: 0.00000, 130: 0.00000, 131: 0.00000, 132: 0.00000, 133: 0.00000, 134: 0.00000, 135: 0.00000, 136: 0.00000, 137: 0.00000, 138: 0.00000, 139: 0.00000, 140: 0.00000, 141: 0.00000, 142: 0.00000, 143: 0.00000, 144: 0.00000, 145: 0.00000, 146: 0.00000, 147: 0.00000, 148: 0.00000, 149: 0.00000, 150: 0.00000, 151: 0.00000, 152: 0.00000, 153: 0.00000, 154: 0.00000, 155: 0.00000, 156: 0.00000, 157: 0.00000, 158: 0.00000, 159: 0.00000, 160: 0.00000, 161: 0.00000, 162: 0.00000, 163: 0.00000, 164: 0.00000, 165: 0.00000, 166: 0.00000, 167: 0.00000, 168: 0.00000, 169: 0.00000, 170: 0.00000, 171: 0.00000, 172: 0.00000, 173: 0.00000, 174: 0.00000, 175: 0.00000, 176: 0.00000, 177: 0.00000, 178: 0.00000, 179: 0.00000, 180: 0.00000, 181: 0.00000, 182: 0.00000, 183: 0.00000, 184: 0.00000, 185: 0.00000, 186: 0.00000, 187: 0.00000, 188: 0.00000, 189: 0.00000, 190: 0.00000, 191: 0.00000, 192: 0.00000, 193: 0.00000, 194: 0.00000, 195: 0.00000, 196: 0.00000, 197: 0.00000, 198: 0.00000, 199: 0.00000, 200: 0.00000, 201: 0.00000, 202: 0.00000, 203: 0.00000, 204: 0.00000, 205: 0.00000, 206: 0.00000, 207: 0.00000, 208: 0.00000, 209: 0.00000, 210: 0.00000, 211: 0.00000, 212: 0.00000, 213: 0.00000, 214: 0.00000, 215: 0.00000, 216: 0.00000, 217: 0.00000, 218: 0.00000, 219: 0.00000, 220: 0.00000, 221: 0.00000, 222: 0.00000, 223: 0.00000, 224: 0.00000, 225: 0.00000, 226: 0.00000, 227: 0.00000, 228: 0.00000, 229: 0.00000, 230: 0.00000, 231: 0.00000, 232: 0.00000, 233: 0.00000, 234: 0.00000, 235: 0.00000, 236: 0.00000, 237: 0.00000, 238: 0.00000, 239: 0.00000, 240: 0.00000, 241: 0.00000, 242: 0.00000, 243: 0.00000, 244: 0.00000, 245: 0.00000, 246: 0.00000, 247: 0.00000, 248: 0.00000, 249: 0.00000, 250: 0.00000, 251: 0.00000, 252: 0.00000, 253: 0.00000, 254: 0.00000, 255: 0.00000, 256: 0.00000, 257: 0.00000, 258: 0.00000, 259: 0.00000, 260: 0.00000, 261: 0.00000, 262: 0.00000, 263: 0.00000, 264: 0.00000, 265: 0.00000, 266: 0.00000, 267: 0.00000, 268: 0.00000, 269: 0.00000, 270: 0.00000, 271: 0.00000, 272: 0.00000, 273: 0.00000, 274: 0.00000, 275: 0.00000, 276: 0.00000, 277: 0.00000, 278: 0.00000, 279: 0.00000, 280: 0.00000, 281: 0.00000, 282: 0.00000, 283: 0.00000, 284: 0.00000, 285: 0.00000, 286: 0.00000, 287: 0.00000, 288: 0.00000, 289: 0.00000, 290: 0.00000, 291: 0.00000, 292: 0.00000, 293: 0.00000, 294: 0.00000, 295: 0.00000, 296: 0.00000, 297: 0.00000, 298: 0.00000, 299: 0.00000, 300: 0.00000, 301: 0.00000, 302: 0.00000, 303: 0.00000, 304: 0.00000, 305: 0.00000, 306: 0.00000, 307: 0.00000, 308: 0.00000, 309: 0.00000, 310: 0.00000, 311: 0.00000, 312: 0.00000, 313: 0.00000, 314: 0.00000, 315: 0.00000, 316: 0.00000, 317: 0.00000, 318: 0.00000, 319: 0.00000, 320: 0.00000, 321: 0.00000, 322: 0.00000, 323: 0.00000, 324: 0.00000, 325: 0.00000, 326: 0.00000, 327: 0.00000, 328: 0.00000, 329: 0.00000, 330: 0.00000, 331: 0.00000, 332: 0.00000, 333: 0.00000, 334: 0.00000, 335: 0.00000, 336: 0.00000, 337: 0.00000, 338: 0.00000, 339: 0.00000, 340: 0.00000, 341: 0.00000, 342: 0.00000, 343: 0.00000, 344: 0.00000, 345: 0.00000, 346: 0.00000, 347: 0.00000, 348: 0.00000, 349: 0.00000, 350: 0.00000, 351: 0.00000, 352: 0.00000, 353: 0.00000, 354: 0.00000, 355: 0.00000, 356: 0.00000, 357: 0.00000, 358: 0.00000, 359: 0.00000, 360: 0.00000, 361: 0.00000, 362: 0.00000, 363: 0.00000, 364: 0.00000, 365: 0.00000, 366: 0.00000, 367: 0.00000, 368: 0.00000, 369: 0.00000, 370: 0.00000, 371: 0.00000, 372: 0.00000, 373: 0.00000, 374: 0.00000, 375: 0.00000, 376: 0.00000, 377: 0.00000, 378: 0.00000, 379: 0.00000, 380: 0.00000, 381: 0.00000, 382: 0.00000, 383: 0.00000, 384: 0.00000, 385: 0.00000, 386: 0.00000, 387: 0.00000, 388: 0.00000, 389: 0.00000, 390: 0.00000, 391: 0.00000, 392: 0.00000, 393: 0.00000, 394: 0.00000, 395: 0.00000, 396: 0.00000, 397: 0.00000, 398: 0.00000, 399: 0.00000, 400: 0.00000, 401: 0.00000, 402: 0.00000, 403: 0.00000, 404: 0.00000, 405: 0.00000, 406: 0.00000, 407: 0.00000, 408: 0.00000
   414 |      |   1: 0.00000,   2: 0.00000,   3: 0.00000,   4: 0.00000,   5: 0.00000,   6: 0.00000,   7: 0.00000,   8: 0.00000,   9: 0.00000,  10: 0.00000,  11: 0.00000,  12: 0.00000,  13: 0.00000,  14: 0.00000,  15: 0.00000,  16: 0.00000,  17: 0.00000,  18: 0.00000,  19: 0.00000,  20: 0.00000,  21: 0.00000,  22: 0.00000,  23: 0.00000,  24: 0.00000,  25: 0.00000,  26: 0.00000,  27: 0.00000,  28: 0.00000,  29: 0.00000,  30: 0.00000,  31: 0.00000,  32: 0.00000,  33: 0.00000,  34: 0.00000,  35: 0.00000,  36: 0.00000,  37: 0.00000,  38: 0.00000,  39: 0.00000,  40: 0.00000,  41: 0.00000,  42: 0.00000,  43: 0.00000,  44: 0.00000,  45: 0.00000,  46: 0.00000,  47: 0.00000,  48: 0.00000,  49: 0.00000,  50: 0.00000,  51: 0.00000,  52: 0.00000,  53: 0.00000,  54: 0.00000,  55: 0.00000,  56: 0.00000,  57: 0.00000,  58: 0.00000,  59: 0.00000,  60: 0.00000,  61: 0.00000,  62: 0.00000,  63: 0.00000,  64: 0.00000,  65: 0.00000,  66: 0.00000,  67: 0.00000,  68: 0.00000,  69: 0.00000,  70: 0.00000,  71: 0.00000,  72: 0.00000,  73: 0.00000,  74: 0.00000,  75: 0.00000,  76: 0.00000,  77: 0.00000,  78: 0.00000,  79: 0.00000,  80: 0.00000,  81: 0.00000,  82: 0.00000,  83: 0.00000,  84: 0.00000,  85: 0.00000,  86: 0.00000,  87: 0.00000,  88: 0.00000,  89: 0.00000,  90: 0.00000,  91: 0.00000,  92: 0.00000,  93: 0.00000,  94: 0.00000,  95: 0.00000,  96: 0.00000,  97: 0.00000,  98: 0.00000,  99: 0.00000, 100: 0.00000, 101: 0.00000, 102: 0.00000, 103: 0.00000, 104: 0.00000, 105: 0.00000, 106: 0.00000, 107: 0.00000, 108: 0.00000, 109: 0.00000, 110: 0.00000, 111: 0.00000, 112: 0.00000, 113: 0.00000, 114: 0.00000, 115: 0.00000, 116: 0.00000, 117: 0.00000, 118: 0.00000, 119: 0.00000, 120: 0.00000, 121: 0.00000, 122: 0.00000, 123: 0.00000, 124: 0.00000, 125: 0.00000, 126: 0.00000, 127: 0.00000, 128: 0.00000, 129: 0.00000, 130: 0.00000, 131: 0.00000, 132: 0.00000, 133: 0.00000, 134: 0.00000, 135: 0.00000, 136: 0.00000, 137: 0.00000, 138: 0.00000, 139: 0.00000, 140: 0.00000, 141: 0.00000, 142: 0.00000, 143: 0.00000, 144: 0.00000, 145: 0.00000, 146: 0.00000, 147: 0.00000, 148: 0.00000, 149: 0.00000, 150: 0.00000, 151: 0.00000, 152: 0.00000, 153: 0.00000, 154: 0.00000, 155: 0.00000, 156: 0.00000, 157: 0.00000, 158: 0.00000, 159: 0.00000, 160: 0.00000, 161: 0.00000, 162: 0.00000, 163: 0.00000, 164: 0.00000, 165: 0.00000, 166: 0.00000, 167: 0.00000, 168: 0.00000, 169: 0.00000, 170: 0.00000, 171: 0.00000, 172: 0.00000, 173: 0.00000, 174: 0.00000, 175: 0.00000, 176: 0.00000, 177: 0.00000, 178: 0.00000, 179: 0.00000, 180: 0.00000, 181: 0.00000, 182: 0.00000, 183: 0.00000, 184: 0.00000, 185: 0.00000, 186: 0.00000, 187: 0.00000, 188: 0.00000, 189: 0.00000, 190: 0.00000, 191: 0.00000, 192: 0.00000, 193: 0.00000, 194: 0.00000, 195: 0.00000, 196: 0.00000, 197: 0.00000, 198: 0.00000, 199: 0.00000, 200: 0.00000, 201: 0.00000, 202: 0.00000, 203: 0.00000, 204: 0.00000, 205: 0.00000, 206: 0.00000, 207: 0.00000, 208: 0.00000, 209: 0.00000, 210: 0.00000, 211: 0.00000, 212: 0.00000, 213: 0.00000, 214: 0.00000, 215: 0.00000, 216: 0.00000, 217: 0.00000, 218: 0.00000, 219: 0.00000, 220: 0.00000, 221: 0.00000, 222: 0.00000, 223: 0.00000, 224: 0.00000, 225: 0.00000, 226: 0.00000, 227: 0.00000, 228: 0.00000, 229: 0.00000, 230: 0.00000, 231: 0.00000, 232: 0.00000, 233: 0.00000, 234: 0.00000, 235: 0.00000, 236: 0.00000, 237: 0.00000, 238: 0.00000, 239: 0.00000, 240: 0.00000, 241: 0.00000, 242: 0.00000, 243: 0.00000, 244: 0.00000, 245: 0.00000, 246: 0.00000, 247: 0.00000, 248: 0.00000, 249: 0.00000, 250: 0.00000, 251: 0.00000, 252: 0.00000, 253: 0.00000, 254: 0.00000, 255: 0.00000, 256: 0.00000, 257: 0.00000, 258: 0.00000, 259: 0.00000, 260: 0.00000, 261: 0.00000, 262: 0.00000, 263: 0.00000, 264: 0.00000, 265: 0.00000, 266: 0.00000, 267: 0.00000, 268: 0.00000, 269: 0.00000, 270: 0.00000, 271: 0.00000, 272: 0.00000, 273: 0.00000, 274: 0.00000, 275: 0.00000, 276: 0.00000, 277: 0.00000, 278: 0.00000, 279: 0.00000, 280: 0.00000, 281: 0.00000, 282: 0.00000, 283: 0.00000, 284: 0.00000, 285: 0.00000, 286: 0.00000, 287: 0.00000, 288: 0.00000, 289: 0.00000, 290: 0.00000, 291: 0.00000, 292: 0.00000, 293: 0.00000, 294: 0.00000, 295: 0.00000, 296: 0.00000, 297: 0.00000, 298: 0.00000, 299: 0.00000, 300: 0.00000, 301: 0.00000, 302: 0.00000, 303: 0.00000, 304: 0.00000, 305: 0.00000, 306: 0.00000, 307: 0.00000, 308: 0.00000, 309: 0.00000, 310: 0.00000, 311: 0.00000, 312: 0.00000, 313: 0.00000, 314: 0.00000, 315: 0.00000, 316: 0.00000, 317: 0.00000, 318: 0.00000, 319: 0.00000, 320: 0.00000, 321: 0.00000, 322: 0.00000, 323: 0.00000, 324: 0.00000, 325: 0.00000, 326: 0.00000, 327: 0.00000, 328: 0.00000, 329: 0.00000, 330: 0.00000, 331: 0.00000, 332: 0.00000, 333: 0.00000, 334: 0.00000, 335: 0.00000, 336: 0.00000, 337: 0.00000, 338: 0.00000, 339: 0.00000, 340: 0.00000, 341: 0.00000, 342: 0.00000, 343: 0.00000, 344: 0.00000, 345: 0.00000, 346: 0.00000, 347: 0.00000, 348: 0.00000, 349: 0.00000, 350: 0.00000, 351: 0.00000, 352: 0.00000, 353: 0.00000, 354: 0.00000, 355: 0.00000, 356: 0.00000, 357: 0.00000, 358: 0.00000, 359: 0.00000, 360: 0.00000, 361: 0.00000, 362: 0.00000, 363: 0.00000, 364: 0.00000, 365: 0.00000, 366: 0.00000, 367: 0.00000, 368: 0.00000, 369: 0.00000, 370: 0.00000, 371: 0.00000, 372: 0.00000, 373: 0.00000, 374: 0.00000, 375: 0.00000, 376: 0.00000, 377: 0.00000, 378: 0.00000, 379: 0.00000, 380: 0.00000, 381: 0.00000, 382: 0.00000, 383: 0.00000, 384: 0.00000, 385: 0.00000, 386: 0.00000, 387: 0.00000, 388: 0.00000, 389: 0.00000, 390: 0.00000, 391: 0.00000, 392: 0.00000, 393: 0.00000, 394: 0.00000, 395: 0.00000, 396: 0.00000, 397: 0.00000, 398: 0.00000, 399: 0.00000, 400: 0.00000, 401: 0.00000, 402: 0.00000, 403: 0.00000, 404: 0.00000, 405: 0.00000, 406: 0.00000, 407: 0.00000, 408: 0.00000
   415 |      |   1: 0.00000,   2: 0.00000,   3: 0.00000,   4: 0.00000,   5: 0.00000,   6: 0.00000,   7: 0.00000,   8: 0.00000,   9: 0.00000,  10: 0.00000,  11: 0.00000,  12: 0.00000,  13: 0.00000,  14: 0.00000,  15: 0.00000,  16: 0.00000,  17: 0.00000,  18: 0.00000,  19: 0.00000,  20: 0.00000,  21: 0.00000,  22: 0.00000,  23: 0.00000,  24: 0.00000,  25: 0.00000,  26: 0.00000,  27: 0.00000,  28: 0.00000,  29: 0.00000,  30: 0.00000,  31: 0.00000,  32: 0.00000,  33: 0.00000,  34: 0.00000,  35: 0.00000,  36: 0.00000,  37: 0.00000,  38: 0.00000,  39: 0.00000,  40: 0.00000,  41: 0.00000,  42: 0.00000,  43: 0.00000,  44: 0.00000,  45: 0.00000,  46: 0.00000,  47: 0.00000,  48: 0.00000,  49: 0.00000,  50: 0.00000,  51: 0.00000,  52: 0.00000,  53: 0.00000,  54: 0.00000,  55: 0.00000,  56: 0.00000,  57: 0.00000,  58: 0.00000,  59: 0.00000,  60: 0.00000,  61: 0.00000,  62: 0.00000,  63: 0.00000,  64: 0.00000,  65: 0.00000,  66: 0.00000,  67: 0.00000,  68: 0.00000,  69: 0.00000,  70: 0.00000,  71: 0.00000,  72: 0.00000,  73: 0.00000,  74: 0.00000,  75: 0.00000,  76: 0.00000,  77: 0.00000,  78: 0.00000,  79: 0.00000,  80: 0.00000,  81: 0.00000,  82: 0.00000,  83: 0.00000,  84: 0.00000,  85: 0.00000,  86: 0.00000,  87: 0.00000,  88: 0.00000,  89: 0.00000,  90: 0.00000,  91: 0.00000,  92: 0.00000,  93: 0.00000,  94: 0.00000,  95: 0.00000,  96: 0.00000,  97: 0.00000,  98: 0.00000,  99: 0.00000, 100: 0.00000, 101: 0.00000, 102: 0.00000, 103: 0.00000, 104: 0.00000, 105: 0.00000, 106: 0.00000, 107: 0.00000, 108: 0.00000, 109: 0.00000, 110: 0.00000, 111: 0.00000, 112: 0.00000, 113: 0.00000, 114: 0.00000, 115: 0.00000, 116: 0.00000, 117: 0.00000, 118: 0.00000, 119: 0.00000, 120: 0.00000, 121: 0.00000, 122: 0.00000, 123: 0.00000, 124: 0.00000, 125: 0.00000, 126: 0.00000, 127: 0.00000, 128: 0.00000, 129: 0.00000, 130: 0.00000, 131: 0.00000, 132: 0.00000, 133: 0.00000, 134: 0.00000, 135: 0.00000, 136: 0.00000, 137: 0.00000, 138: 0.00000, 139: 0.00000, 140: 0.00000, 141: 0.00000, 142: 0.00000, 143: 0.00000, 144: 0.00000, 145: 0.00000, 146: 0.00000, 147: 0.00000, 148: 0.00000, 149: 0.00000, 150: 0.00000, 151: 0.00000, 152: 0.00000, 153: 0.00000, 154: 0.00000, 155: 0.00000, 156: 0.00000, 157: 0.00000, 158: 0.00000, 159: 0.00000, 160: 0.00000, 161: 0.00000, 162: 0.00000, 163: 0.00000, 164: 0.00000, 165: 0.00000, 166: 0.00000, 167: 0.00000, 168: 0.00000, 169: 0.00000, 170: 0.00000, 171: 0.00000, 172: 0.00000, 173: 0.00000, 174: 0.00000, 175: 0.00000, 176: 0.00000, 177: 0.00000, 178: 0.00000, 179: 0.00000, 180: 0.00000, 181: 0.00000, 182: 0.00000, 183: 0.00000, 184: 0.00000, 185: 0.00000, 186: 0.00000, 187: 0.00000, 188: 0.00000, 189: 0.00000, 190: 0.00000, 191: 0.00000, 192: 0.00000, 193: 0.00000, 194: 0.00000, 195: 0.00000, 196: 0.00000, 197: 0.00000, 198: 0.00000, 199: 0.00000, 200: 0.00000, 201: 0.00000, 202: 0.00000, 203: 0.00000, 204: 0.00000, 205: 0.00000, 206: 0.00000, 207: 0.00000, 208: 0.00000, 209: 0.00000, 210: 0.00000, 211: 0.00000, 212: 0.00000, 213: 0.00000, 214: 0.00000, 215: 0.00000, 216: 0.00000, 217: 0.00000, 218: 0.00000, 219: 0.00000, 220: 0.00000, 221: 0.00000, 222: 0.00000, 223: 0.00000, 224: 0.00000, 225: 0.00000, 226: 0.00000, 227: 0.00000, 228: 0.00000, 229: 0.00000, 230: 0.00000, 231: 0.00000, 232: 0.00000, 233: 0.00000, 234: 0.00000, 235: 0.00000, 236: 0.00000, 237: 0.00000, 238: 0.00000, 239: 0.00000, 240: 0.00000, 241: 0.00000, 242: 0.00000, 243: 0.00000, 244: 0.00000, 245: 0.00000, 246: 0.00000, 247: 0.00000, 248: 0.00000, 249: 0.00000, 250: 0.00000, 251: 0.00000, 252: 0.00000, 253: 0.00000, 254: 0.00000, 255: 0.00000, 256: 0.00000, 257: 0.00000, 258: 0.00000, 259: 0.00000, 260: 0.00000, 261: 0.00000, 262: 0.00000, 263: 0.00000, 264: 0.00000, 265: 0.00000, 266: 0.00000, 267: 0.00000, 268: 0.00000, 269: 0.00000, 270: 0.00000, 271: 0.00000, 272: 0.00000, 273: 0.00000, 274: 0.00000, 275: 0.00000, 276: 0.00000, 277: 0.00000, 278: 0.00000, 279: 0.00000, 280: 0.00000, 281: 0.00000, 282: 0.00000, 283: 0.00000, 284: 0.00000, 285: 0.00000, 286: 0.00000, 287: 0.00000, 288: 0.00000, 289: 0.00000, 290: 0.00000, 291: 0.00000, 292: 0.00000, 293: 0.00000, 294: 0.00000, 295: 0.00000, 296: 0.00000, 297: 0.00000, 298: 0.00000, 299: 0.00000, 300: 0.00000, 301: 0.00000, 302: 0.00000, 303: 0.00000, 304: 0.00000, 305: 0.00000, 306: 0.00000, 307: 0.00000, 308: 0.00000, 309: 0.00000, 310: 0.00000, 311: 0.00000, 312: 0.00000, 313: 0.00000, 314: 0.00000, 315: 0.00000, 316: 0.00000, 317: 0.00000, 318: 0.00000, 319: 0.00000, 320: 0.00000, 321: 0.00000, 322: 0.00000, 323: 0.00000, 324: 0.00000, 325: 0.00000, 326: 0.00000, 327: 0.00000, 328: 0.00000, 329: 0.00000, 330: 0.00000, 331: 0.00000, 332: 0.00000, 333: 0.00000, 334: 0.00000, 335: 0.00000, 336: 0.00000, 337: 0.00000, 338: 0.00000, 339: 0.00000, 340: 0.00000, 341: 0.00000, 342: 0.00000, 343: 0.00000, 344: 0.00000, 345: 0.00000, 346: 0.00000, 347: 0.00000, 348: 0.00000, 349: 0.00000, 350: 0.00000, 351: 0.00000, 352: 0.00000, 353: 0.00000, 354: 0.00000, 355: 0.00000, 356: 0.00000, 357: 0.00000, 358: 0.00000, 359: 0.00000, 360: 0.00000, 361: 0.00000, 362: 0.00000, 363: 0.00000, 364: 0.00000, 365: 0.00000, 366: 0.00000, 367: 0.00000, 368: 0.00000, 369: 0.00000, 370: 0.00000, 371: 0.00000, 372: 0.00000, 373: 0.00000, 374: 0.00000, 375: 0.00000, 376: 0.00000, 377: 0.00000, 378: 0.00000, 379: 0.00000, 380: 0.00000, 381: 0.00000, 382: 0.00000, 383: 0.00000, 384: 0.00000, 385: 0.00000, 386: 0.00000, 387: 0.00000, 388: 0.00000, 389: 0.00000, 390: 0.00000, 391: 0.00000, 392: 0.00000, 393: 0.00000, 394: 0.00000, 395: 0.00000, 396: 0.00000, 397: 0.00000, 398: 0.00000, 399: 0.00000, 400: 0.00000, 401: 0.00000, 402: 0.00000, 403: 0.00000, 404: 0.00000, 405: 0.00000, 406: 0.00000, 407: 0.00000, 408: 0.00000
   416 |      |   1: 0.00000,   2: 0.00000,   3: 0.00000,   4: 0.00000,   5: 0.00000,   6: 0.00000,   7: 0.00000,   8: 0.00000,   9: 0.00000,  10: 0.00000,  11: 0.00000,  12: 0.00000,  13: 0.00000,  14: 0.00000,  15: 0.00000,  16: 0.00000,  17: 0.00000,  18: 0.00000,  19: 0.00000,  20: 0.00000,  21: 0.00000,  22: 0.00000,  23: 0.00000,  24: 0.00000,  25: 0.00000,  26: 0.00000,  27: 0.00000,  28: 0.00000,  29: 0.00000,  30: 0.00000,  31: 0.00000,  32: 0.00000,  33: 0.00000,  34: 0.00000,  35: 0.00000,  36: 0.00000,  37: 0.00000,  38: 0.00000,  39: 0.00000,  40: 0.00000,  41: 0.00000,  42: 0.00000,  43: 0.00000,  44: 0.00000,  45: 0.00000,  46: 0.00000,  47: 0.00000,  48: 0.00000,  49: 0.00000,  50: 0.00000,  51: 0.00000,  52: 0.00000,  53: 0.00000,  54: 0.00000,  55: 0.00000,  56: 0.00000,  57: 0.00000,  58: 0.00000,  59: 0.00000,  60: 0.00000,  61: 0.00000,  62: 0.00000,  63: 0.00000,  64: 0.00000,  65: 0.00000,  66: 0.00000,  67: 0.00000,  68: 0.00000,  69: 0.00000,  70: 0.00000,  71: 0.00000,  72: 0.00000,  73: 0.00000,  74: 0.00000,  75: 0.00000,  76: 0.00000,  77: 0.00000,  78: 0.00000,  79: 0.00000,  80: 0.00000,  81: 0.00000,  82: 0.00000,  83: 0.00000,  84: 0.00000,  85: 0.00000,  86: 0.00000,  87: 0.00000,  88: 0.00000,  89: 0.00000,  90: 0.00000,  91: 0.00000,  92: 0.00000,  93: 0.00000,  94: 0.00000,  95: 0.00000,  96: 0.00000,  97: 0.00000,  98: 0.00000,  99: 0.00000, 100: 0.00000, 101: 0.00000, 102: 0.00000, 103: 0.00000, 104: 0.00000, 105: 0.00000, 106: 0.00000, 107: 0.00000, 108: 0.00000, 109: 0.00000, 110: 0.00000, 111: 0.00000, 112: 0.00000, 113: 0.00000, 114: 0.00000, 115: 0.00000, 116: 0.00000, 117: 0.00000, 118: 0.00000, 119: 0.00000, 120: 0.00000, 121: 0.00000, 122: 0.00000, 123: 0.00000, 124: 0.00000, 125: 0.00000, 126: 0.00000, 127: 0.00000, 128: 0.00000, 129: 0.00000, 130: 0.00000, 131: 0.00000, 132: 0.00000, 133: 0.00000, 134: 0.00000, 135: 0.00000, 136: 0.00000, 137: 0.00000, 138: 0.00000, 139: 0.00000, 140: 0.00000, 141: 0.00000, 142: 0.00000, 143: 0.00000, 144: 0.00000, 145: 0.00000, 146: 0.00000, 147: 0.00000, 148: 0.00000, 149: 0.00000, 150: 0.00000, 151: 0.00000, 152: 0.00000, 153: 0.00000, 154: 0.00000, 155: 0.00000, 156: 0.00000, 157: 0.00000, 158: 0.00000, 159: 0.00000, 160: 0.00000, 161: 0.00000, 162: 0.00000, 163: 0.00000, 164: 0.00000, 165: 0.00000, 166: 0.00000, 167: 0.00000, 168: 0.00000, 169: 0.00000, 170: 0.00000, 171: 0.00000, 172: 0.00000, 173: 0.00000, 174: 0.00000, 175: 0.00000, 176: 0.00000, 177: 0.00000, 178: 0.00000, 179: 0.00000, 180: 0.00000, 181: 0.00000, 182: 0.00000, 183: 0.00000, 184: 0.00000, 185: 0.00000, 186: 0.00000, 187: 0.00000, 188: 0.00000, 189: 0.00000, 190: 0.00000, 191: 0.00000, 192: 0.00000, 193: 0.00000, 194: 0.00000, 195: 0.00000, 196: 0.00000, 197: 0.00000, 198: 0.00000, 199: 0.00000, 200: 0.00000, 201: 0.00000, 202: 0.00000, 203: 0.00000, 204: 0.00000, 205: 0.00000, 206: 0.00000, 207: 0.00000, 208: 0.00000, 209: 0.00000, 210: 0.00000, 211: 0.00000, 212: 0.00000, 213: 0.00000, 214: 0.00000, 215: 0.00000, 216: 0.00000, 217: 0.00000, 218: 0.00000, 219: 0.00000, 220: 0.00000, 221: 0.00000, 222: 0.00000, 223: 0.00000, 224: 0.00000, 225: 0.00000, 226: 0.00000, 227: 0.00000, 228: 0.00000, 229: 0.00000, 230: 0.00000, 231: 0.00000, 232: 0.00000, 233: 0.00000, 234: 0.00000, 235: 0.00000, 236: 0.00000, 237: 0.00000, 238: 0.00000, 239: 0.00000, 240: 0.00000, 241: 0.00000, 242: 0.00000, 243: 0.00000, 244: 0.00000, 245: 0.00000, 246: 0.00000, 247: 0.00000, 248: 0.00000, 249: 0.00000, 250: 0.00000, 251: 0.00000, 252: 0.00000, 253: 0.00000, 254: 0.00000, 255: 0.00000, 256: 0.00000, 257: 0.00000, 258: 0.00000, 259: 0.00000, 260: 0.00000, 261: 0.00000, 262: 0.00000, 263: 0.00000, 264: 0.00000, 265: 0.00000, 266: 0.00000, 267: 0.00000, 268: 0.00000, 269: 0.00000, 270: 0.00000, 271: 0.00000, 272: 0.00000, 273: 0.00000, 274: 0.00000, 275: 0.00000, 276: 0.00000, 277: 0.00000, 278: 0.00000, 279: 0.00000, 280: 0.00000, 281: 0.00000, 282: 0.00000, 283: 0.00000, 284: 0.00000, 285: 0.00000, 286: 0.00000, 287: 0.00000, 288: 0.00000, 289: 0.00000, 290: 0.00000, 291: 0.00000, 292: 0.00000, 293: 0.00000, 294: 0.00000, 295: 0.00000, 296: 0.00000, 297: 0.00000, 298: 0.00000, 299: 0.00000, 300: 0.00000, 301: 0.00000, 302: 0.00000, 303: 0.00000, 304: 0.00000, 305: 0.00000, 306: 0.00000, 307: 0.00000, 308: 0.00000, 309: 0.00000, 310: 0.00000, 311: 0.00000, 312: 0.00000, 313: 0.00000, 314: 0.00000, 315: 0.00000, 316: 0.00000, 317: 0.00000, 318: 0.00000, 319: 0.00000, 320: 0.00000, 321: 0.00000, 322: 0.00000, 323: 0.00000, 324: 0.00000, 325: 0.00000, 326: 0.00000, 327: 0.00000, 328: 0.00000, 329: 0.00000, 330: 0.00000, 331: 0.00000, 332: 0.00000, 333: 0.00000, 334: 0.00000, 335: 0.00000, 336: 0.00000, 337: 0.00000, 338: 0.00000, 339: 0.00000, 340: 0.00000, 341: 0.00000, 342: 0.00000, 343: 0.00000, 344: 0.00000, 345: 0.00000, 346: 0.00000, 347: 0.00000, 348: 0.00000, 349: 0.00000, 350: 0.00000, 351: 0.00000, 352: 0.00000, 353: 0.00000, 354: 0.00000, 355: 0.00000, 356: 0.00000, 357: 0.00000, 358: 0.00000, 359: 0.00000, 360: 0.00000, 361: 0.00000, 362: 0.00000, 363: 0.00000, 364: 0.00000, 365: 0.00000, 366: 0.00000, 367: 0.00000, 368: 0.00000, 369: 0.00000, 370: 0.00000, 371: 0.00000, 372: 0.00000, 373: 0.00000, 374: 0.00000, 375: 0.00000, 376: 0.00000, 377: 0.00000, 378: 0.00000, 379: 0.00000, 380: 0.00000, 381: 0.00000, 382: 0.00000, 383: 0.00000, 384: 0.00000, 385: 0.00000, 386: 0.00000, 387: 0.00000, 388: 0.00000, 389: 0.00000, 390: 0.00000, 391: 0.00000, 392: 0.00000, 393: 0.00000, 394: 0.00000, 395: 0.00000, 396: 0.00000, 397: 0.00000, 398: 0.00000, 399: 0.00000, 400: 0.00000, 401: 0.00000, 402: 0.00000, 403: 0.00000, 404: 0.00000, 405: 0.00000, 406: 0.00000, 407: 0.00000, 408: 0.00000
   417 |      |   1: 0.00000,   2: 0.00000,   3: 0.00000,   4: 0.00000,   5: 0.00000,   6: 0.00000,   7: 0.00000,   8: 0.00000,   9: 0.00000,  10: 0.00000,  11: 0.00000,  12: 0.00000,  13: 0.00000,  14: 0.00000,  15: 0.00000,  16: 0.00000,  17: 0.00000,  18: 0.00000,  19: 0.00000,  20: 0.00000,  21: 0.00000,  22: 0.00000,  23: 0.00000,  24: 0.00000,  25: 0.00000,  26: 0.00000,  27: 0.00000,  28: 0.00000,  29: 0.00000,  30: 0.00000,  31: 0.00000,  32: 0.00000,  33: 0.00000,  34: 0.00000,  35: 0.00000,  36: 0.00000,  37: 0.00000,  38: 0.00000,  39: 0.00000,  40: 0.00000,  41: 0.00000,  42: 0.00000,  43: 0.00000,  44: 0.00000,  45: 0.00000,  46: 0.00000,  47: 0.00000,  48: 0.00000,  49: 0.00000,  50: 0.00000,  51: 0.00000,  52: 0.00000,  53: 0.00000,  54: 0.00000,  55: 0.00000,  56: 0.00000,  57: 0.00000,  58: 0.00000,  59: 0.00000,  60: 0.00000,  61: 0.00000,  62: 0.00000,  63: 0.00000,  64: 0.00000,  65: 0.00000,  66: 0.00000,  67: 0.00000,  68: 0.00000,  69: 0.00000,  70: 0.00000,  71: 0.00000,  72: 0.00000,  73: 0.00000,  74: 0.00000,  75: 0.00000,  76: 0.00000,  77: 0.00000,  78: 0.00000,  79: 0.00000,  80: 0.00000,  81: 0.00000,  82: 0.00000,  83: 0.00000,  84: 0.00000,  85: 0.00000,  86: 0.00000,  87: 0.00000,  88: 0.00000,  89: 0.00000,  90: 0.00000,  91: 0.00000,  92: 0.00000,  93: 0.00000,  94: 0.00000,  95: 0.00000,  96: 0.00000,  97: 0.00000,  98: 0.00000,  99: 0.00000, 100: 0.00000, 101: 0.00000, 102: 0.00000, 103: 0.00000, 104: 0.00000, 105: 0.00000, 106: 0.00000, 107: 0.00000, 108: 0.00000, 109: 0.00000, 110: 0.00000, 111: 0.00000, 112: 0.00000, 113: 0.00000, 114: 0.00000, 115: 0.00000, 116: 0.00000, 117: 0.00000, 118: 0.00000, 119: 0.00000, 120: 0.00000, 121: 0.00000, 122: 0.00000, 123: 0.00000, 124: 0.00000, 125: 0.00000, 126: 0.00000, 127: 0.00000, 128: 0.00000, 129: 0.00000, 130: 0.00000, 131: 0.00000, 132: 0.00000, 133: 0.00000, 134: 0.00000, 135: 0.00000, 136: 0.00000, 137: 0.00000, 138: 0.00000, 139: 0.00000, 140: 0.00000, 141: 0.00000, 142: 0.00000, 143: 0.00000, 144: 0.00000, 145: 0.00000, 146: 0.00000, 147: 0.00000, 148: 0.00000, 149: 0.00000, 150: 0.00000, 151: 0.00000, 152: 0.00000, 153: 0.00000, 154: 0.00000, 155: 0.00000, 156: 0.00000, 157: 0.00000, 158: 0.00000, 159: 0.00000, 160: 0.00000, 161: 0.00000, 162: 0.00000, 163: 0.00000, 164: 0.00000, 165: 0.00000, 166: 0.00000, 167: 0.00000, 168: 0.00000, 169: 0.00000, 170: 0.00000, 171: 0.00000, 172: 0.00000, 173: 0.00000, 174: 0.00000, 175: 0.00000, 176: 0.00000, 177: 0.00000, 178: 0.00000, 179: 0.00000, 180: 0.00000, 181: 0.00000, 182: 0.00000, 183: 0.00000, 184: 0.00000, 185: 0.00000, 186: 0.00000, 187: 0.00000, 188: 0.00000, 189: 0.00000, 190: 0.00000, 191: 0.00000, 192: 0.00000, 193: 0.00000, 194: 0.00000, 195: 0.00000, 196: 0.00000, 197: 0.00000, 198: 0.00000, 199: 0.00000, 200: 0.00000, 201: 0.00000, 202: 0.00000, 203: 0.00000, 204: 0.00000, 205: 0.00000, 206: 0.00000, 207: 0.00000, 208: 0.00000, 209: 0.00000, 210: 0.00000, 211: 0.00000, 212: 0.00000, 213: 0.00000, 214: 0.00000, 215: 0.00000, 216: 0.00000, 217: 0.00000, 218: 0.00000, 219: 0.00000, 220: 0.00000, 221: 0.00000, 222: 0.00000, 223: 0.00000, 224: 0.00000, 225: 0.00000, 226: 0.00000, 227: 0.00000, 228: 0.00000, 229: 0.00000, 230: 0.00000, 231: 0.00000, 232: 0.00000, 233: 0.00000, 234: 0.00000, 235: 0.00000, 236: 0.00000, 237: 0.00000, 238: 0.00000, 239: 0.00000, 240: 0.00000, 241: 0.00000, 242: 0.00000, 243: 0.00000, 244: 0.00000, 245: 0.00000, 246: 0.00000, 247: 0.00000, 248: 0.00000, 249: 0.00000, 250: 0.00000, 251: 0.00000, 252: 0.00000, 253: 0.00000, 254: 0.00000, 255: 0.00000, 256: 0.00000, 257: 0.00000, 258: 0.00000, 259: 0.00000, 260: 0.00000, 261: 0.00000, 262: 0.00000, 263: 0.00000, 264: 0.00000, 265: 0.00000, 266: 0.00000, 267: 0.00000, 268: 0.00000, 269: 0.00000, 270: 0.00000, 271: 0.00000, 272: 0.00000, 273: 0.00000, 274: 0.00000, 275: 0.00000, 276: 0.00000, 277: 0.00000, 278: 0.00000, 279: 0.00000, 280: 0.00000, 281: 0.00000, 282: 0.00000, 283: 0.00000, 284: 0.00000, 285: 0.00000, 286: 0.00000, 287: 0.00000, 288: 0.00000, 289: 0.00000, 290: 0.00000, 291: 0.00000, 292: 0.00000, 293: 0.00000, 294: 0.00000, 295: 0.00000, 296: 0.00000, 297: 0.00000, 298: 0.00000, 299: 0.00000, 300: 0.00000, 301: 0.00000, 302: 0.00000, 303: 0.00000, 304: 0.00000, 305: 0.00000, 306: 0.00000, 307: 0.00000, 308: 0.00000, 309: 0.00000, 310: 0.00000, 311: 0.00000, 312: 0.00000, 313: 0.00000, 314: 0.00000, 315: 0.00000, 316: 0.00000, 317: 0.00000, 318: 0.00000, 319: 0.00000, 320: 0.00000, 321: 0.00000, 322: 0.00000, 323: 0.00000, 324: 0.00000, 325: 0.00000, 326: 0.00000, 327: 0.00000, 328: 0.00000, 329: 0.00000, 330: 0.00000, 331: 0.00000, 332: 0.00000, 333: 0.00000, 334: 0.00000, 335: 0.00000, 336: 0.00000, 337: 0.00000, 338: 0.00000, 339: 0.00000, 340: 0.00000, 341: 0.00000, 342: 0.00000, 343: 0.00000, 344: 0.00000, 345: 0.00000, 346: 0.00000, 347: 0.00000, 348: 0.00000, 349: 0.00000, 350: 0.00000, 351: 0.00000, 352: 0.00000, 353: 0.00000, 354: 0.00000, 355: 0.00000, 356: 0.00000, 357: 0.00000, 358: 0.00000, 359: 0.00000, 360: 0.00000, 361: 0.00000, 362: 0.00000, 363: 0.00000, 364: 0.00000, 365: 0.00000, 366: 0.00000, 367: 0.00000, 368: 0.00000, 369: 0.00000, 370: 0.00000, 371: 0.00000, 372: 0.00000, 373: 0.00000, 374: 0.00000, 375: 0.00000, 376: 0.00000, 377: 0.00000, 378: 0.00000, 379: 0.00000, 380: 0.00000, 381: 0.00000, 382: 0.00000, 383: 0.00000, 384: 0.00000, 385: 0.00000, 386: 0.00000, 387: 0.00000, 388: 0.00000, 389: 0.00000, 390: 0.00000, 391: 0.00000, 392: 0.00000, 393: 0.00000, 394: 0.00000, 395: 0.00000, 396: 0.00000, 397: 0.00000, 398: 0.00000, 399: 0.00000, 400: 0.00000, 401: 0.00000, 402: 0.00000, 403: 0.00000, 404: 0.00000, 405: 0.00000, 406: 0.00000, 407: 0.00000, 408: 0.00000
   418 |      |   1: 0.00000,   2: 0.00000,   3: 0.00000,   4: 0.00000,   5: 0.00000,   6: 0.00000,   7: 0.00000,   8: 0.00000,   9: 0.00000,  10: 0.00000,  11: 0.00000,  12: 0.00000,  13: 0.00000,  14: 0.00000,  15: 0.00000,  16: 0.00000,  17: 0.00000,  18: 0.00000,  19: 0.00000,  20: 0.00000,  21: 0.00000,  22: 0.00000,  23: 0.00000,  24: 0.00000,  25: 0.00000,  26: 0.00000,  27: 0.00000,  28: 0.00000,  29: 0.00000,  30: 0.00000,  31: 0.00000,  32: 0.00000,  33: 0.00000,  34: 0.00000,  35: 0.00000,  36: 0.00000,  37: 0.00000,  38: 0.00000,  39: 0.00000,  40: 0.00000,  41: 0.00000,  42: 0.00000,  43: 0.00000,  44: 0.00000,  45: 0.00000,  46: 0.00000,  47: 0.00000,  48: 0.00000,  49: 0.00000,  50: 0.00000,  51: 0.00000,  52: 0.00000,  53: 0.00000,  54: 0.00000,  55: 0.00000,  56: 0.00000,  57: 0.00000,  58: 0.00000,  59: 0.00000,  60: 0.00000,  61: 0.00000,  62: 0.00000,  63: 0.00000,  64: 0.00000,  65: 0.00000,  66: 0.00000,  67: 0.00000,  68: 0.00000,  69: 0.00000,  70: 0.00000,  71: 0.00000,  72: 0.00000,  73: 0.00000,  74: 0.00000,  75: 0.00000,  76: 0.00000,  77: 0.00000,  78: 0.00000,  79: 0.00000,  80: 0.00000,  81: 0.00000,  82: 0.00000,  83: 0.00000,  84: 0.00000,  85: 0.00000,  86: 0.00000,  87: 0.00000,  88: 0.00000,  89: 0.00000,  90: 0.00000,  91: 0.00000,  92: 0.00000,  93: 0.00000,  94: 0.00000,  95: 0.00000,  96: 0.00000,  97: 0.00000,  98: 0.00000,  99: 0.00000, 100: 0.00000, 101: 0.00000, 102: 0.00000, 103: 0.00000, 104: 0.00000, 105: 0.00000, 106: 0.00000, 107: 0.00000, 108: 0.00000, 109: 0.00000, 110: 0.00000, 111: 0.00000, 112: 0.00000, 113: 0.00000, 114: 0.00000, 115: 0.00000, 116: 0.00000, 117: 0.00000, 118: 0.00000, 119: 0.00000, 120: 0.00000, 121: 0.00000, 122: 0.00000, 123: 0.00000, 124: 0.00000, 125: 0.00000, 126: 0.00000, 127: 0.00000, 128: 0.00000, 129: 0.00000, 130: 0.00000, 131: 0.00000, 132: 0.00000, 133: 0.00000, 134: 0.00000, 135: 0.00000, 136: 0.00000, 137: 0.00000, 138: 0.00000, 139: 0.00000, 140: 0.00000, 141: 0.00000, 142: 0.00000, 143: 0.00000, 144: 0.00000, 145: 0.00000, 146: 0.00000, 147: 0.00000, 148: 0.00000, 149: 0.00000, 150: 0.00000, 151: 0.00000, 152: 0.00000, 153: 0.00000, 154: 0.00000, 155: 0.00000, 156: 0.00000, 157: 0.00000, 158: 0.00000, 159: 0.00000, 160: 0.00000, 161: 0.00000, 162: 0.00000, 163: 0.00000, 164: 0.00000, 165: 0.00000, 166: 0.00000, 167: 0.00000, 168: 0.00000, 169: 0.00000, 170: 0.00000, 171: 0.00000, 172: 0.00000, 173: 0.00000, 174: 0.00000, 175: 0.00000, 176: 0.00000, 177: 0.00000, 178: 0.00000, 179: 0.00000, 180: 0.00000, 181: 0.00000, 182: 0.00000, 183: 0.00000, 184: 0.00000, 185: 0.00000, 186: 0.00000, 187: 0.00000, 188: 0.00000, 189: 0.00000, 190: 0.00000, 191: 0.00000, 192: 0.00000, 193: 0.00000, 194: 0.00000, 195: 0.00000, 196: 0.00000, 197: 0.00000, 198: 0.00000, 199: 0.00000, 200: 0.00000, 201: 0.00000, 202: 0.00000, 203: 0.00000, 204: 0.00000, 205: 0.00000, 206: 0.00000, 207: 0.00000, 208: 0.00000, 209: 0.00000, 210: 0.00000, 211: 0.00000, 212: 0.00000, 213: 0.00000, 214: 0.00000, 215: 0.00000, 216: 0.00000, 217: 0.00000, 218: 0.00000, 219: 0.00000, 220: 0.00000, 221: 0.00000, 222: 0.00000, 223: 0.00000, 224: 0.00000, 225: 0.00000, 226: 0.00000, 227: 0.00000, 228: 0.00000, 229: 0.00000, 230: 0.00000, 231: 0.00000, 232: 0.00000, 233: 0.00000, 234: 0.00000, 235: 0.00000, 236: 0.00000, 237: 0.00000, 238: 0.00000, 239: 0.00000, 240: 0.00000, 241: 0.00000, 242: 0.00000, 243: 0.00000, 244: 0.00000, 245: 0.00000, 246: 0.00000, 247: 0.00000, 248: 0.00000, 249: 0.00000, 250: 0.00000, 251: 0.00000, 252: 0.00000, 253: 0.00000, 254: 0.00000, 255: 0.00000, 256: 0.00000, 257: 0.00000, 258: 0.00000, 259: 0.00000, 260: 0.00000, 261: 0.00000, 262: 0.00000, 263: 0.00000, 264: 0.00000, 265: 0.00000, 266: 0.00000, 267: 0.00000, 268: 0.00000, 269: 0.00000, 270: 0.00000, 271: 0.00000, 272: 0.00000, 273: 0.00000, 274: 0.00000, 275: 0.00000, 276: 0.00000, 277: 0.00000, 278: 0.00000, 279: 0.00000, 280: 0.00000, 281: 0.00000, 282: 0.00000, 283: 0.00000, 284: 0.00000, 285: 0.00000, 286: 0.00000, 287: 0.00000, 288: 0.00000, 289: 0.00000, 290: 0.00000, 291: 0.00000, 292: 0.00000, 293: 0.00000, 294: 0.00000, 295: 0.00000, 296: 0.00000, 297: 0.00000, 298: 0.00000, 299: 0.00000, 300: 0.00000, 301: 0.00000, 302: 0.00000, 303: 0.00000, 304: 0.00000, 305: 0.00000, 306: 0.00000, 307: 0.00000, 308: 0.00000, 309: 0.00000, 310: 0.00000, 311: 0.00000, 312: 0.00000, 313: 0.00000, 314: 0.00000, 315: 0.00000, 316: 0.00000, 317: 0.00000, 318: 0.00000, 319: 0.00000, 320: 0.00000, 321: 0.00000, 322: 0.00000, 323: 0.00000, 324: 0.00000, 325: 0.00000, 326: 0.00000, 327: 0.00000, 328: 0.00000, 329: 0.00000, 330: 0.00000, 331: 0.00000, 332: 0.00000, 333: 0.00000, 334: 0.00000, 335: 0.00000, 336: 0.00000, 337: 0.00000, 338: 0.00000, 339: 0.00000, 340: 0.00000, 341: 0.00000, 342: 0.00000, 343: 0.00000, 344: 0.00000, 345: 0.00000, 346: 0.00000, 347: 0.00000, 348: 0.00000, 349: 0.00000, 350: 0.00000, 351: 0.00000, 352: 0.00000, 353: 0.00000, 354: 0.00000, 355: 0.00000, 356: 0.00000, 357: 0.00000, 358: 0.00000, 359: 0.00000, 360: 0.00000, 361: 0.00000, 362: 0.00000, 363: 0.00000, 364: 0.00000, 365: 0.00000, 366: 0.00000, 367: 0.00000, 368: 0.00000, 369: 0.00000, 370: 0.00000, 371: 0.00000, 372: 0.00000, 373: 0.00000, 374: 0.00000, 375: 0.00000, 376: 0.00000, 377: 0.00000, 378: 0.00000, 379: 0.00000, 380: 0.00000, 381: 0.00000, 382: 0.00000, 383: 0.00000, 384: 0.00000, 385: 0.00000, 386: 0.00000, 387: 0.00000, 388: 0.00000, 389: 0.00000, 390: 0.00000, 391: 0.00000, 392: 0.00000, 393: 0.00000, 394: 0.00000, 395: 0.00000, 396: 0.00000, 397: 0.00000, 398: 0.00000, 399: 0.00000, 400: 0.00000, 401: 0.00000, 402: 0.00000, 403: 0.00000, 404: 0.00000, 405: 0.00000, 406: 0.00000, 407: 0.00000, 408: 0.00000
   419 |      |   1: 0.00000,   2: 0.00000,   3: 0.00000,   4: 0.00000,   5: 0.00000,   6: 0.00000,   7: 0.00000,   8: 0.00000,   9: 0.00000,  10: 0.00000,  11: 0.00000,  12: 0.00000,  13: 0.00000,  14: 0.00000,  15: 0.00000,  16: 0.00000,  17: 0.00000,  18: 0.00000,  19: 0.00000,  20: 0.00000,  21: 0.00000,  22: 0.00000,  23: 0.00000,  24: 0.00000,  25: 0.00000,  26: 0.00000,  27: 0.00000,  28: 0.00000,  29: 0.00000,  30: 0.00000,  31: 0.00000,  32: 0.00000,  33: 0.00000,  34: 0.00000,  35: 0.00000,  36: 0.00000,  37: 0.00000,  38: 0.00000,  39: 0.00000,  40: 0.00000,  41: 0.00000,  42: 0.00000,  43: 0.00000,  44: 0.00000,  45: 0.00000,  46: 0.00000,  47: 0.00000,  48: 0.00000,  49: 0.00000,  50: 0.00000,  51: 0.00000,  52: 0.00000,  53: 0.00000,  54: 0.00000,  55: 0.00000,  56: 0.00000,  57: 0.00000,  58: 0.00000,  59: 0.00000,  60: 0.00000,  61: 0.00000,  62: 0.00000,  63: 0.00000,  64: 0.00000,  65: 0.00000,  66: 0.00000,  67: 0.00000,  68: 0.00000,  69: 0.00000,  70: 0.00000,  71: 0.00000,  72: 0.00000,  73: 0.00000,  74: 0.00000,  75: 0.00000,  76: 0.00000,  77: 0.00000,  78: 0.00000,  79: 0.00000,  80: 0.00000,  81: 0.00000,  82: 0.00000,  83: 0.00000,  84: 0.00000,  85: 0.00000,  86: 0.00000,  87: 0.00000,  88: 0.00000,  89: 0.00000,  90: 0.00000,  91: 0.00000,  92: 0.00000,  93: 0.00000,  94: 0.00000,  95: 0.00000,  96: 0.00000,  97: 0.00000,  98: 0.00000,  99: 0.00000, 100: 0.00000, 101: 0.00000, 102: 0.00000, 103: 0.00000, 104: 0.00000, 105: 0.00000, 106: 0.00000, 107: 0.00000, 108: 0.00000, 109: 0.00000, 110: 0.00000, 111: 0.00000, 112: 0.00000, 113: 0.00000, 114: 0.00000, 115: 0.00000, 116: 0.00000, 117: 0.00000, 118: 0.00000, 119: 0.00000, 120: 0.00000, 121: 0.00000, 122: 0.00000, 123: 0.00000, 124: 0.00000, 125: 0.00000, 126: 0.00000, 127: 0.00000, 128: 0.00000, 129: 0.00000, 130: 0.00000, 131: 0.00000, 132: 0.00000, 133: 0.00000, 134: 0.00000, 135: 0.00000, 136: 0.00000, 137: 0.00000, 138: 0.00000, 139: 0.00000, 140: 0.00000, 141: 0.00000, 142: 0.00000, 143: 0.00000, 144: 0.00000, 145: 0.00000, 146: 0.00000, 147: 0.00000, 148: 0.00000, 149: 0.00000, 150: 0.00000, 151: 0.00000, 152: 0.00000, 153: 0.00000, 154: 0.00000, 155: 0.00000, 156: 0.00000, 157: 0.00000, 158: 0.00000, 159: 0.00000, 160: 0.00000, 161: 0.00000, 162: 0.00000, 163: 0.00000, 164: 0.00000, 165: 0.00000, 166: 0.00000, 167: 0.00000, 168: 0.00000, 169: 0.00000, 170: 0.00000, 171: 0.00000, 172: 0.00000, 173: 0.00000, 174: 0.00000, 175: 0.00000, 176: 0.00000, 177: 0.00000, 178: 0.00000, 179: 0.00000, 180: 0.00000, 181: 0.00000, 182: 0.00000, 183: 0.00000, 184: 0.00000, 185: 0.00000, 186: 0.00000, 187: 0.00000, 188: 0.00000, 189: 0.00000, 190: 0.00000, 191: 0.00000, 192: 0.00000, 193: 0.00000, 194: 0.00000, 195: 0.00000, 196: 0.00000, 197: 0.00000, 198: 0.00000, 199: 0.00000, 200: 0.00000, 201: 0.00000, 202: 0.00000, 203: 0.00000, 204: 0.00000, 205: 0.00000, 206: 0.00000, 207: 0.00000, 208: 0.00000, 209: 0.00000, 210: 0.00000, 211: 0.00000, 212: 0.00000, 213: 0.00000, 214: 0.00000, 215: 0.00000, 216: 0.00000, 217: 0.00000, 218: 0.00000, 219: 0.00000, 220: 0.00000, 221: 0.00000, 222: 0.00000, 223: 0.00000, 224: 0.00000, 225: 0.00000, 226: 0.00000, 227: 0.00000, 228: 0.00000, 229: 0.00000, 230: 0.00000, 231: 0.00000, 232: 0.00000, 233: 0.00000, 234: 0.00000, 235: 0.00000, 236: 0.00000, 237: 0.00000, 238: 0.00000, 239: 0.00000, 240: 0.00000, 241: 0.00000, 242: 0.00000, 243: 0.00000, 244: 0.00000, 245: 0.00000, 246: 0.00000, 247: 0.00000, 248: 0.00000, 249: 0.00000, 250: 0.00000, 251: 0.00000, 252: 0.00000, 253: 0.00000, 254: 0.00000, 255: 0.00000, 256: 0.00000, 257: 0.00000, 258: 0.00000, 259: 0.00000, 260: 0.00000, 261: 0.00000, 262: 0.00000, 263: 0.00000, 264: 0.00000, 265: 0.00000, 266: 0.00000, 267: 0.00000, 268: 0.00000, 269: 0.00000, 270: 0.00000, 271: 0.00000, 272: 0.00000, 273: 0.00000, 274: 0.00000, 275: 0.00000, 276: 0.00000, 277: 0.00000, 278: 0.00000, 279: 0.00000, 280: 0.00000, 281: 0.00000, 282: 0.00000, 283: 0.00000, 284: 0.00000, 285: 0.00000, 286: 0.00000, 287: 0.00000, 288: 0.00000, 289: 0.00000, 290: 0.00000, 291: 0.00000, 292: 0.00000, 293: 0.00000, 294: 0.00000, 295: 0.00000, 296: 0.00000, 297: 0.00000, 298: 0.00000, 299: 0.00000, 300: 0.00000, 301: 0.00000, 302: 0.00000, 303: 0.00000, 304: 0.00000, 305: 0.00000, 306: 0.00000, 307: 0.00000, 308: 0.00000, 309: 0.00000, 310: 0.00000, 311: 0.00000, 312: 0.00000, 313: 0.00000, 314: 0.00000, 315: 0.00000, 316: 0.00000, 317: 0.00000, 318: 0.00000, 319: 0.00000, 320: 0.00000, 321: 0.00000, 322: 0.00000, 323: 0.00000, 324: 0.00000, 325: 0.00000, 326: 0.00000, 327: 0.00000, 328: 0.00000, 329: 0.00000, 330: 0.00000, 331: 0.00000, 332: 0.00000, 333: 0.00000, 334: 0.00000, 335: 0.00000, 336: 0.00000, 337: 0.00000, 338: 0.00000, 339: 0.00000, 340: 0.00000, 341: 0.00000, 342: 0.00000, 343: 0.00000, 344: 0.00000, 345: 0.00000, 346: 0.00000, 347: 0.00000, 348: 0.00000, 349: 0.00000, 350: 0.00000, 351: 0.00000, 352: 0.00000, 353: 0.00000, 354: 0.00000, 355: 0.00000, 356: 0.00000, 357: 0.00000, 358: 0.00000, 359: 0.00000, 360: 0.00000, 361: 0.00000, 362: 0.00000, 363: 0.00000, 364: 0.00000, 365: 0.00000, 366: 0.00000, 367: 0.00000, 368: 0.00000, 369: 0.00000, 370: 0.00000, 371: 0.00000, 372: 0.00000, 373: 0.00000, 374: 0.00000, 375: 0.00000, 376: 0.00000, 377: 0.00000, 378: 0.00000, 379: 0.00000, 380: 0.00000, 381: 0.00000, 382: 0.00000, 383: 0.00000, 384: 0.00000, 385: 0.00000, 386: 0.00000, 387: 0.00000, 388: 0.00000, 389: 0.00000, 390: 0.00000, 391: 0.00000, 392: 0.00000, 393: 0.00000, 394: 0.00000, 395: 0.00000, 396: 0.00000, 397: 0.00000, 398: 0.00000, 399: 0.00000, 400: 0.00000, 401: 0.00000, 402: 0.00000, 403: 0.00000, 404: 0.00000, 405: 0.00000, 406: 0.00000, 407: 0.00000, 408: 0.00000
